tree
version=v4
num_class=1
num_tree_per_iteration=1
label_index=0
max_feature_idx=3
objective=regression
feature_names=vehicle_age_years segment_tier rto_zone fuel_type
monotone_constraints=1 0 0 0
feature_infos=[0:10] -1:3:1:4:8:2:5:7:0 -1:2:4:3:1:0 -1:2:3:0:1
tree_sizes=704 707 710 708 784 782 849 708 710 638 706 775 572 641 925 710 565 566 567 643 642 710 641 713 928 926 1083 718 788 862 938 937 1079 1008 1164 1088 1160 1238 1310 1532 1530 1146 1538 1311 1547 1301 1691 1312 1537 1310 1615 1465 1319 1160 1238 1012 1309 1384 1388 1161 1312 1235 1159 1080 1232 1076 1152 1385 1309 1232 1152 1154 1451 1382 1527 1680 1381 1446 1294 1908 1450 1754 1228 1445 1374 1520 1521 1526 1374 1829 1303 1299 1519 1452 1447 1289 1597 1528 1372 1454 1301 1521 1225 1529 1527 1666 1455 1373 1300 1605 1532 1532 1450 1594 1521 1459 1585 1527 1374 1526 1599 1446 1595 1442 1597 1904 1520 1441 1822 1516 1519 1442 1599 1882 1374 1516 1515 1583 1668 1813 1742 1663 1509 1589 1588 1672 1664 1366 1900 1828

Tree=0
num_leaves=7
num_cat=6
split_feature=1 1 1 3 1 1
split_gain=2.29832e+11 3.07853e+10 1.18429e+11 1.56587e+09 8.94063e+08 1.00667e+08
threshold=0 1 2 3 4 5
decision_type=9 9 9 1 9 9
left_child=-1 4 5 -4 -2 -3
right_child=1 2 3 -5 -6 -7
leaf_value=9632.6652775004732 8463.782697401477 8513.7360209783947 10008.12834456637 9333.3022793014534 8389.8714171110223 8473.273434583336
leaf_weight=487 737 721 112 115 2266 562
leaf_count=487 737 721 112 115 2266 562
internal_value=8612.06 8499.91 8683.91 9711.11 8407.46 8495.08
internal_weight=5000 4513 1510 227 3003 1283
internal_count=5000 4513 1510 227 3003 1283
cat_boundaries=0 1 2 3 4 5 6
cat_threshold=32 154 260 5 16 256
is_linear=0
shrinkage=1


Tree=1
num_leaves=7
num_cat=6
split_feature=1 1 1 3 2 2
split_gain=2.07755e+11 2.33679e+10 3.39405e+10 2.22512e+09 4.1084e+09 5.98235e+08
threshold=0 1 2 3 4 5
decision_type=9 9 9 1 1 1
left_child=-1 -2 -3 4 -4 -5
right_child=1 2 3 5 -6 -7
leaf_value=970.60341524415821 -210.78444389015013 -138.1077130626594 496.39582086940146 238.53488471047922 126.1742872950236 91.051276729561692
leaf_weight=487 2445 1299 248 218 140 163
leaf_count=487 2445 1299 248 218 140 163
internal_value=0.253036 -106.373 17.4933 278.734 369.337 179.381
internal_weight=5000 4513 2068 769 388 381
internal_count=5000 4513 2068 769 388 381
cat_boundaries=0 1 2 3 4 5 6
cat_threshold=32 139 20 5 21 26
is_linear=0
shrinkage=0.05


Tree=2
num_leaves=7
num_cat=6
split_feature=1 1 1 3 2 2
split_gain=1.87833e+11 2.11363e+10 3.07341e+10 2.01586e+09 3.71789e+09 5.41625e+08
threshold=0 1 2 3 4 5
decision_type=9 9 9 1 1 1
left_child=-1 -2 -3 4 -4 -5
right_child=1 2 3 5 -6 -7
leaf_value=923.04968692925377 -200.28815120230868 -131.25508162756748 472.53801439714061 227.13124368232593 120.28614831606546 86.761865452259258
leaf_weight=487 2445 1299 248 218 140 163
leaf_count=487 2445 1299 248 218 140 163
internal_value=0.397768 -100.988 16.8145 265.409 351.653 170.833
internal_weight=5000 4513 2068 769 388 381
internal_count=5000 4513 2068 769 388 381
cat_boundaries=0 1 2 3 4 5 6
cat_threshold=32 139 20 5 21 26
is_linear=0
shrinkage=0.05


Tree=3
num_leaves=7
num_cat=6
split_feature=1 1 1 3 2 2
split_gain=1.6982e+11 1.91178e+10 3.89645e+10 2.12335e+09 3.86967e+09 8.64546e+07
threshold=0 1 2 3 4 5
decision_type=9 9 9 1 1 1
left_child=-1 -2 -3 4 -4 -5
right_child=1 2 3 5 -6 -7
leaf_value=877.82582912329951 -190.31453294554214 -124.29004247057829 165.42625456457381 140.61115763848571 589.83357701816465 271.28663422474312
leaf_weight=487 2445 1458 109 109 203 189
leaf_count=487 2445 1458 109 109 203 189
internal_value=0.527704 -95.8746 16.1604 348.45 451.305 229.606
internal_weight=5000 4513 2068 610 312 298
internal_count=5000 4513 2068 610 312 298
cat_boundaries=0 1 2 3 4 5 6
cat_threshold=32 139 272 5 10 5
is_linear=0
shrinkage=0.05


Tree=4
num_leaves=8
num_cat=7
split_feature=1 1 1 3 2 2 1
split_gain=1.53524e+11 1.73052e+10 3.53196e+10 1.92472e+09 3.50131e+09 7.63575e+07 2.17203e+07
threshold=0 1 2 3 4 5 6
decision_type=9 9 9 1 1 1 9
left_child=-1 6 -3 4 -4 -5 -2
right_child=1 2 3 5 -6 -7 -8
leaf_value=834.81766593230805 -154.73749022001351 -118.11787366206869 157.85000602818337 134.17139911811896 561.72647762029953 258.40392402572246 -191.43251416677253
leaf_weight=487 751 1458 109 109 203 189 1694
leaf_count=487 751 1458 109 109 203 189 1694
internal_value=0.674355 -90.9866 15.6033 331.969 429.913 218.795 -180.838
internal_weight=5000 4513 2068 610 312 298 2445
internal_count=5000 4513 2068 610 312 298 2445
cat_boundaries=0 1 2 3 4 5 6 7
cat_threshold=32 139 272 5 10 5 2
is_linear=0
shrinkage=0.05


Tree=5
num_leaves=8
num_cat=7
split_feature=1 1 1 3 2 2 1
split_gain=1.38798e+11 1.41689e+10 3.18311e+10 1.71786e+09 3.21574e+09 4.51277e+08 8.23544e+06
threshold=0 1 2 3 4 5 6
decision_type=9 9 9 1 1 1 9
left_child=-1 -2 6 4 -4 -5 -3
right_child=1 2 3 5 -6 -7 -8
leaf_value=793.91666824218009 -174.77908021434553 -115.71507881354776 455.53422860729609 225.66042849180991 124.66523456160229 93.197462495351814 -147.10228107255955
leaf_weight=487 2256 737 248 218 140 163 751
leaf_count=487 2256 737 248 218 140 163 751
internal_value=0.788909 -86.3657 2.38966 261.619 342.28 172.823 -132.433
internal_weight=5000 4513 2257 769 388 381 1488
internal_count=5000 4513 2257 769 388 381 1488
cat_boundaries=0 1 2 3 4 5 6 7
cat_threshold=32 141 18 5 21 26 16
is_linear=0
shrinkage=0.05


Tree=6
num_leaves=9
num_cat=8
split_feature=1 1 1 2 3 3 2 2
split_gain=1.25489e+11 1.28148e+10 3.01068e+10 1.73691e+09 5.40331e+09 1.13183e+09 1.04136e+09 3.6951e+08
threshold=0 1 2 3 4 5 6 7
decision_type=9 9 9 1 1 1 1 1
left_child=-1 -2 -3 4 -4 6 -5 -7
right_child=1 2 3 5 -6 7 -8 -9
leaf_value=755.01951383488404 -166.07868932821219 -130.76208376296458 614.44852431640629 350.04513436124682 92.576670177023985 178.75097116115876 127.64651669982477 47.552796151902946
leaf_weight=487 2256 1472 115 178 106 103 131 152
leaf_count=487 2256 1472 115 178 106 103 131 152
internal_value=0.874999 -81.9964 2.4105 250.634 378.983 194.615 262.717 105.292
internal_weight=5000 4513 2257 785 221 564 309 255
internal_count=5000 4513 2257 785 221 564 309 255
cat_boundaries=0 1 2 3 4 5 6 7 8
cat_threshold=32 141 258 16 3 12 6 9
is_linear=0
shrinkage=0.05


Tree=7
num_leaves=7
num_cat=6
split_feature=1 1 1 3 2 2
split_gain=1.13435e+11 1.16118e+10 3.00005e+10 1.52297e+09 2.85969e+09 3.88542e+08
threshold=0 1 2 3 4 5
decision_type=9 9 9 1 1 1
left_child=-1 -2 -3 4 -4 -5
right_child=1 2 3 5 -6 -7
leaf_value=718.02811556227016 -157.81140302672179 -128.3166918852022 437.95262337839881 219.79886142663793 124.19116090647381 94.308206084146661
leaf_weight=487 2256 1488 248 218 140 163
leaf_count=487 2256 1488 248 218 140 163
internal_value=1.01817 -77.7734 2.57235 254.236 330.705 169.896
internal_weight=5000 4513 2257 769 388 381
internal_count=5000 4513 2257 769 388 381
cat_boundaries=0 1 2 3 4 5 6
cat_threshold=32 141 18 5 21 26
is_linear=0
shrinkage=0.05


Tree=8
num_leaves=7
num_cat=6
split_feature=1 1 1 3 2 1
split_gain=1.02554e+11 1.19394e+10 3.62956e+10 1.5627e+09 2.93105e+09 1.99122e+07
threshold=0 1 2 3 4 5
decision_type=9 9 9 1 1 9
left_child=-1 5 -3 4 -4 -2
right_child=1 2 3 -5 -6 -7
leaf_value=682.8490923507353 -129.87889807488057 -120.84549694246124 170.68873798947376 229.00795584406174 549.81827258257806 -158.92194417106521
leaf_weight=487 930 1458 109 298 203 1515
leaf_count=487 930 1458 109 298 203 1515
internal_value=1.09808 -73.8195 14.7048 335.416 426.78 -148.449
internal_weight=5000 4513 2068 610 312 2445
internal_count=5000 4513 2068 610 312 2445
cat_boundaries=0 1 2 3 4 5 6
cat_threshold=32 139 272 5 10 3
is_linear=0
shrinkage=0.05


Tree=9
num_leaves=6
num_cat=5
split_feature=1 1 1 3 2
split_gain=9.27162e+10 1.10456e+10 2.82202e+10 1.61689e+09 5.74186e+08
threshold=0 1 2 3 4
decision_type=9 9 9 1 1
left_child=-1 -2 -3 -4 -5
right_child=1 2 3 4 -6
leaf_value=649.39360425553821 -148.11994070585914 -120.70282530936434 385.83019298985232 143.74701490510287 265.53798252997274
leaf_weight=487 2256 1472 191 343 251
leaf_count=487 2256 1472 191 343 251
internal_value=1.16545 -70.0688 8.2569 248.553 198.755
internal_weight=5000 4513 2257 785 594
internal_count=5000 4513 2257 785 594
cat_boundaries=0 1 2 3 4 5
cat_threshold=32 141 258 1 25
is_linear=0
shrinkage=0.05


Tree=10
num_leaves=7
num_cat=6
split_feature=1 1 1 3 2 2
split_gain=8.38221e+10 9.99316e+09 2.8059e+10 1.29619e+09 2.48583e+09 3.2088e+08
threshold=0 1 2 3 4 5
decision_type=9 9 9 1 1 1
left_child=-1 -2 -3 4 -4 -5
right_child=1 2 3 5 -6 -7
leaf_value=617.57724450493242 -140.74662852545072 -118.61529889405968 423.91534771568098 219.00721528007276 128.04725551350913 99.96820031976425
leaf_weight=487 2256 1488 248 218 140 163
leaf_count=487 2256 1488 248 218 140 163
internal_value=1.22474 -66.5072 7.9928 251.355 323.058 171.939
internal_weight=5000 4513 2257 769 388 381
internal_count=5000 4513 2257 769 388 381
cat_boundaries=0 1 2 3 4 5 6
cat_threshold=32 141 18 5 21 26
is_linear=0
shrinkage=0.05


Tree=11
num_leaves=8
num_cat=7
split_feature=1 1 1 3 2 2 2
split_gain=7.57784e+10 1.4343e+10 2.20319e+10 1.90289e+09 2.799e+09 4.02632e+08 2.52364e+08
threshold=0 1 2 3 4 5 6
decision_type=9 9 9 1 1 1 1
left_child=-1 -2 -3 4 6 -5 -4
right_child=1 2 3 5 -6 -7 -8
leaf_value=587.31967523515345 -132.76202924862886 -116.28185902464469 265.43783604234892 198.35650108119091 504.72183369111411 77.527750475546895 119.85102456790298
leaf_weight=487 2798 916 128 239 148 160 124
leaf_count=487 2798 916 128 239 148 160 124
internal_value=1.28642 -63.1143 50.6261 241.047 323.016 152.984 201.109
internal_weight=5000 4513 1715 799 400 399 252
internal_count=5000 4513 1715 799 400 399 252
cat_boundaries=0 1 2 3 4 5 6 7
cat_threshold=32 396 17 5 14 26 4
is_linear=0
shrinkage=0.05


Tree=12
num_leaves=5
num_cat=4
split_feature=1 1 1 3
split_gain=6.84984e+10 1.35022e+10 1.16983e+11 2.74682e+07
threshold=0 1 2 3
decision_type=9 9 9 1
left_child=-1 -2 3 -3
right_child=1 2 -4 -5
leaf_value=558.54455116083261 -126.48548973121531 -98.654573569095831 1082.6069028480144 -128.62083386455444
leaf_weight=487 2828 716 227 742
leaf_count=487 2828 716 227 742
internal_value=1.37251 -59.8572 52.0541 -114.677
internal_weight=5000 4513 1685 1458
internal_count=5000 4513 1685 1458
cat_boundaries=0 1 2 3 4
cat_threshold=32 142 272 10
is_linear=0
shrinkage=0.05


Tree=13
num_leaves=6
num_cat=5
split_feature=1 1 1 3 3
split_gain=6.19212e+10 1.12682e+10 5.14889e+10 1.75572e+09 2.48029e+07
threshold=0 1 2 3 4
decision_type=9 9 9 1 1
left_child=-1 -2 4 -4 -3
right_child=1 2 3 -5 -6
leaf_value=531.17925788564696 -124.18864232783652 -93.789790523216425 623.69361889038555 340.68267871178523 -122.27531118266127
leaf_weight=487 2607 716 233 215 742
leaf_count=487 2607 716 233 215 742
internal_value=1.43263 -56.7838 35.5787 498.278 -109.021
internal_weight=5000 4513 1906 448 1458
internal_count=5000 4513 1906 448 1458
cat_boundaries=0 1 2 3 4 5
cat_threshold=32 15 272 5 10
is_linear=0
shrinkage=0.05


Tree=14
num_leaves=10
num_cat=9
split_feature=1 1 1 2 3 3 3 3 1
split_gain=5.5977e+10 9.14245e+09 2.6773e+10 1.47586e+09 4.52932e+09 9.70424e+08 1.46411e+08 2.29862e+07 7.87039e+06
threshold=0 1 2 3 4 5 6 7 8
decision_type=9 9 9 1 1 1 1 1 9
left_child=-1 8 7 4 -4 -5 -7 -3 -2
right_child=1 2 3 5 -6 6 -8 -9 -10
leaf_value=505.15466957783076 -117.19060470361151 -93.7208854282473 589.40999868164067 262.67977755615328 105.40838436258251 155.66754720244612 60.284310292122065 -121.7096658534295 -144.74788049307662
leaf_weight=487 1677 742 115 309 106 132 123 730 579
leaf_count=487 1677 742 115 309 106 132 123 730 579
internal_value=1.47653 -53.8756 17.3259 251.347 371.877 198.462 113.67 -108.329 -124.871
internal_weight=5000 4513 2257 785 221 564 255 1472 2256
internal_count=5000 4513 2257 785 221 564 255 1472 2256
cat_boundaries=0 1 2 3 4 5 6 7 8 9
cat_threshold=32 141 258 16 3 12 1 10 12
is_linear=0
shrinkage=0.05


Tree=15
num_leaves=7
num_cat=6
split_feature=1 1 1 3 2 3
split_gain=5.06013e+10 9.97723e+09 3.50466e+10 1.11272e+09 2.3046e+09 2.07834e+07
threshold=0 1 2 3 4 5
decision_type=9 9 9 1 1 1
left_child=-1 -2 5 4 -4 -3
right_child=1 2 3 -5 -6 -7
leaf_value=480.40514191333915 -119.73589091274106 -89.097157087821046 189.4912865406325 246.75678550670673 540.85135298039711 -115.7064175179198
leaf_weight=487 2431 742 109 298 203 730
leaf_count=487 2431 742 109 298 203 730
internal_value=1.52283 -51.1048 29.2199 344.761 427.798 -102.985
internal_weight=5000 4513 2082 610 312 1472
internal_count=5000 4513 2082 610 312 1472
cat_boundaries=0 1 2 3 4 5 6
cat_threshold=32 153 258 5 10 10
is_linear=0
shrinkage=0.05


Tree=16
num_leaves=5
num_cat=4
split_feature=1 1 1 3
split_gain=4.57421e+10 1.53294e+10 1.01754e+11 8.14684e+07
threshold=0 1 2 3
decision_type=9 9 9 1
left_child=-1 -2 -3 -4
right_child=1 2 3 -5
leaf_value=456.86818416641512 -103.54431353988373 -122.42161046742413 1291.0585430203892 699.502489807129
leaf_weight=487 3324 962 112 115
leaf_count=487 3324 962 112 115
internal_value=1.55998 -48.4775 105.048 1033.53
internal_weight=5000 4513 1189 227
internal_count=5000 4513 1189 227
cat_boundaries=0 1 2 3 4
cat_threshold=32 282 132 5
is_linear=0
shrinkage=0.05


Tree=17
num_leaves=5
num_cat=4
split_feature=1 1 1 3
split_gain=4.13278e+10 1.39462e+10 9.25468e+10 7.66522e+07
threshold=0 1 2 3
decision_type=9 9 9 1
left_child=-1 -2 -3 -4
right_child=1 2 3 -5
leaf_value=434.4844030607635 -98.382625124337579 -116.36350276625943 1231.7968331759093 667.32538445739749
leaf_weight=487 3324 962 112 115
leaf_count=487 3324 962 112 115
internal_value=1.70413 -45.8585 100.575 986.054
internal_weight=5000 4513 1189 227
internal_count=5000 4513 1189 227
cat_boundaries=0 1 2 3 4
cat_threshold=32 282 132 5
is_linear=0
shrinkage=0.05


Tree=18
num_leaves=5
num_cat=4
split_feature=1 1 1 3
split_gain=3.73393e+10 1.26879e+10 8.41727e+10 7.20452e+07
threshold=0 1 2 3
decision_type=9 9 9 1
left_child=-1 -2 -3 -4
right_child=1 2 3 -5
leaf_value=413.19729139301137 -93.478248582481484 -110.60518514285853 1175.2553532334625 636.62841718139657
leaf_weight=487 3324 962 112 115
leaf_count=487 3324 962 112 115
internal_value=1.83081 -43.3794 96.2898 940.758
internal_weight=5000 4513 1189 227
internal_count=5000 4513 1189 227
cat_boundaries=0 1 2 3 4
cat_threshold=32 282 132 5
is_linear=0
shrinkage=0.05


Tree=19
num_leaves=6
num_cat=5
split_feature=1 1 1 3 3
split_gain=3.37357e+10 1.15432e+10 7.65566e+10 6.76476e+07 1.19896e+06
threshold=0 1 2 3 4
decision_type=9 9 9 1 1
left_child=-1 4 -3 -4 -2
right_child=1 2 3 -5 -6
leaf_value=392.95312429155626 -81.548058793256658 -105.13182241710615 1121.3091990486521 607.34350971374522 -95.41643522479535
leaf_weight=487 1645 962 112 115 1679
leaf_count=487 1645 962 112 115 1679
internal_value=1.94137 -41.0327 92.1848 897.543 -88.8184
internal_weight=5000 4513 1189 227 3324
internal_count=5000 4513 1189 227 3324
cat_boundaries=0 1 2 3 4 5
cat_threshold=32 282 132 5 10
is_linear=0
shrinkage=0.05


Tree=20
num_leaves=6
num_cat=5
split_feature=1 1 1 3 3
split_gain=3.04813e+10 1.05033e+10 6.96298e+10 6.34592e+07 1.07804e+06
threshold=0 1 2 3 4
decision_type=9 9 9 1 1
left_child=-1 4 -3 -4 -2
right_child=1 2 3 -5 -6
leaf_value=373.70079263422332 -77.495293014053132 -99.92931154905034 1069.8392642161887 579.40571047363289 -90.673861114078193
leaf_weight=487 1645 962 112 115 1679
leaf_count=487 1645 962 112 115 1679
internal_value=2.02825 -38.8211 88.2526 856.313 -84.404
internal_weight=5000 4513 1189 227 3324
internal_count=5000 4513 1189 227 3324
cat_boundaries=0 1 2 3 4 5
cat_threshold=32 282 132 5 10
is_linear=0
shrinkage=0.05


Tree=21
num_leaves=7
num_cat=6
split_feature=1 1 1 1 3 2
split_gain=2.75407e+10 1.04368e+10 2.40496e+10 4.65312e+09 9.66612e+08 1.94627e+08
threshold=0 1 2 3 4 5
decision_type=9 9 9 9 1 1
left_child=-1 3 -3 -2 -4 -6
right_child=1 2 4 -5 5 -7
leaf_value=355.39170783981234 -352.21723418462847 -78.138432462415963 379.26623899619568 -90.32880216843499 270.62485400196368 171.3482666850457
leaf_weight=487 179 1488 193 2077 261 315
leaf_count=487 179 1488 193 2077 261 315
internal_value=2.10232 -36.7274 39.2445 -112.571 264.465 220.183
internal_weight=5000 4513 2257 2256 769 576
internal_count=5000 4513 2257 2256 769 576
cat_boundaries=0 1 2 3 4 5 6
cat_threshold=32 141 18 1 1 6
is_linear=0
shrinkage=0.05


Tree=22
num_leaves=6
num_cat=5
split_feature=1 1 1 2 3
split_gain=2.48988e+10 1.0178e+10 6.41825e+10 2.24697e+07 8.45094e+06
threshold=0 1 2 3 4
decision_type=9 9 9 1 1
left_child=3 4 -3 -1 -2
right_child=1 2 -4 -5 -6
leaf_value=237.70557218905856 -72.766847555867855 -90.514274006088584 827.61601709454374 380.65484440815021 -86.08518722015701
leaf_weight=165 1645 962 227 322 1679
leaf_count=165 1645 962 227 322 1679
internal_value=2.0628 -34.8578 90.2128 337.98 -79.7322
internal_weight=5000 4513 1189 487 3324
internal_count=5000 4513 1189 487 3324
cat_boundaries=0 1 2 3 4 5
cat_threshold=32 282 132 10 10
is_linear=0
shrinkage=0.05


Tree=23
num_leaves=7
num_cat=6
split_feature=1 1 1 3 2 3
split_gain=2.2542e+10 9.22341e+09 5.81629e+10 3.57048e+08 1.57608e+07 7.62771e+06
threshold=0 1 2 3 4 5
decision_type=9 9 9 1 1 1
left_child=4 5 -3 -4 -1 -2
right_child=1 2 3 -5 -6 -7
leaf_value=226.49946281215122 -69.150489241777947 -86.035122555077322 991.25434336427793 526.54820527343759 362.19538379878884 -81.806411505481279
leaf_weight=165 1645 962 112 115 322 1679
leaf_count=165 1645 962 112 115 322 1679
internal_value=2.07932 -33.051 86.0095 787.981 321.703 -75.7694
internal_weight=5000 4513 1189 227 487 3324
internal_count=5000 4513 1189 227 487 3324
cat_boundaries=0 1 2 3 4 5 6
cat_threshold=32 282 132 5 10 10
is_linear=0
shrinkage=0.05


Tree=24
num_leaves=10
num_cat=9
split_feature=1 1 1 1 3 3 2 2 2
split_gain=2.03986e+10 1.13048e+10 7.92063e+09 4.28111e+10 7.73623e+08 1.40289e+08 1.67113e+08 2.83745e+07 1.01233e+07
threshold=0 1 2 3 4 5 6 7 8
decision_type=9 9 9 9 1 1 1 1 1
left_child=8 -2 -3 5 -5 7 -7 -4 -1
right_child=1 2 3 4 -6 6 -8 -9 -10
leaf_value=215.82161967250283 -409.86779823908728 -69.731619090434933 -37.736771563057594 587.13487271070483 349.36293151092531 -45.22111651548866 -114.60391207809603 -69.133074829562403 344.6310926032354
leaf_weight=165 179 2603 204 233 215 161 481 437 322
leaf_count=165 179 2603 204 233 215 161 481 437 322
internal_value=2.1623 -31.2569 -14.7122 67.9489 483.145 -79.6454 -98.1646 -59.8743 306.21
internal_weight=5000 4513 4334 1731 448 1283 642 641 487
internal_count=5000 4513 4334 1731 448 1283 642 641 487
cat_boundaries=0 1 2 3 4 5 6 7 8 9
cat_threshold=32 1 26 260 5 10 8 4 10
is_linear=0
shrinkage=0.05


Tree=25
num_leaves=10
num_cat=9
split_feature=1 1 1 1 3 3 2 2 2
split_gain=1.84721e+10 1.02654e+10 7.17089e+09 3.87998e+10 6.99798e+08 1.2687e+08 1.50532e+08 2.54958e+07 5.41368e+06
threshold=0 1 2 3 4 5 6 7 8
decision_type=9 9 9 9 1 1 1 1 1
left_child=8 -2 -3 5 -5 7 -7 -4 -1
right_child=1 2 3 4 -6 6 -8 -9 -10
leaf_value=205.64718451309204 -390.45871042725906 -66.258380764469621 -35.938101624996868 558.9862228142382 332.67114717695449 -43.09228498865987 -108.99042163953762 -65.753749935472314 327.91856950564556
leaf_weight=165 179 2603 204 233 215 161 481 437 322
leaf_count=165 179 2603 204 233 215 161 481 437 322
internal_value=2.12926 -29.673 -13.9075 64.7438 460.01 -75.7662 -93.379 -56.9626 291.463
internal_weight=5000 4513 4334 1731 448 1283 642 641 487
internal_count=5000 4513 4334 1731 448 1283 642 641 487
cat_boundaries=0 1 2 3 4 5 6 7 8 9
cat_threshold=32 1 26 260 5 10 8 4 10
is_linear=0
shrinkage=0.05


Tree=26
num_leaves=12
num_cat=11
split_feature=1 1 1 1 3 2 1 2 3 2 2
split_gain=1.67276e+10 9.73734e+09 2.39494e+10 5.44728e+09 1.10344e+09 1.93129e+09 3.38588e+08 1.99817e+08 1.14735e+08 1.01968e+08 1.50703e+06
threshold=0 1 2 3 4 5 6 7 8 9 10
decision_type=9 9 9 9 1 1 9 1 1 1 1
left_child=10 3 -3 -2 5 9 8 -6 -5 -4 -1
right_child=1 2 4 6 7 -7 -8 -9 -10 -11 -12
leaf_value=195.95237802342007 -371.96873318707503 -65.453532596242994 278.16817229830701 -54.192614910752731 225.94583085780164 486.27435443974747 -128.61421326776832 117.23237925361184 -88.826634024897245 143.91318222657958 312.01648422149293
leaf_weight=165 179 1852 128 641 239 148 400 160 642 124 322
leaf_count=165 179 1852 128 641 239 148 400 160 642 124 322
internal_value=2.09426 -28.1693 33.3779 -115.507 260.436 328.056 -86.1938 186.284 -72.0761 220.121 277.427
internal_weight=5000 4513 2651 1862 799 400 1683 399 1283 252 487
internal_count=5000 4513 2651 1862 799 400 1683 399 1283 252 487
cat_boundaries=0 1 2 3 4 5 6 7 8 9 10 11
cat_threshold=32 389 24 1 5 14 260 26 10 4 10
is_linear=0
shrinkage=0.05


Tree=27
num_leaves=7
num_cat=6
split_feature=1 1 1 1 1 3
split_gain=1.63844e+10 3.16769e+10 7.30086e+10 5.05618e+09 3.19183e+08 5.78086e+07
threshold=0 1 2 3 4 5
decision_type=9 9 9 9 9 1
left_child=3 -2 -3 -1 5 -5
right_child=1 2 -4 4 -6 -7
leaf_value=-354.35434659643784 -65.266243872511083 -59.618781702362071 704.37631107330333 -55.578868853348368 -122.3403493615258 -80.871482719795125
leaf_weight=179 1677 737 535 742 400 730
leaf_count=179 1677 737 535 742 400 730
internal_value=2.0946 77.474 264.703 -106.149 -80.6587 -68.5831
internal_weight=5000 2949 1272 2051 1872 1472
internal_count=5000 2949 1272 2051 1872 1472
cat_boundaries=0 1 2 3 4 5 6
cat_threshold=387 12 16 1 258 10
is_linear=0
shrinkage=0.05


Tree=28
num_leaves=8
num_cat=7
split_feature=1 1 1 1 1 3 2
split_gain=1.48288e+10 2.86378e+10 6.60148e+10 4.59405e+09 2.89333e+08 5.22511e+07 1.70898e+06
threshold=0 1 2 3 4 5 6
decision_type=9 9 9 9 9 1 1
left_child=3 -2 6 -1 5 -5 -3
right_child=1 2 -4 4 -6 -7 -8
leaf_value=-337.57407288828858 -62.022274133052498 -50.731024630400981 669.80370930452955 -52.836879116487005 -116.37252795172901 -76.882552312773626 -73.345343532781484
leaf_weight=179 1677 573 535 742 400 730 164
leaf_count=179 1677 573 535 742 400 730 164
internal_value=1.9865 73.6983 251.72 -100.99 -76.6946 -65.2 -56.6777
internal_weight=5000 2949 1272 2051 1872 1472 737
internal_count=5000 2949 1272 2051 1872 1472 737
cat_boundaries=0 1 2 3 4 5 6 7
cat_threshold=387 12 16 1 258 10 28
is_linear=0
shrinkage=0.05


Tree=29
num_leaves=9
num_cat=8
split_feature=1 1 1 1 1 2 3 2
split_gain=1.24616e+10 2.69301e+10 5.9699e+10 4.09766e+09 2.5218e+08 1.40683e+08 5.07167e+07 1.85744e+06
threshold=0 1 2 3 4 5 6 7
decision_type=9 9 9 9 9 1 1 1
left_child=3 -2 7 -1 6 -4 -5 -3
right_child=1 2 5 4 -6 -7 -8 -9
leaf_value=-321.58841919015958 -59.137676177177894 -48.237982588730382 732.48107694661962 -49.287267495413353 -110.69581814626368 482.89610055073973 -74.020538711224702 -69.888839965031067
leaf_weight=179 1836 573 307 659 400 228 654 164
leaf_count=179 1836 573 307 659 400 228 654 164
internal_value=1.87718 63.3978 239.347 -98.9949 -74.0035 636.928 -62.0732 -53.9269
internal_weight=5000 3108 1272 1892 1713 535 1313 737
internal_count=5000 3108 1272 1892 1713 535 1313 737
cat_boundaries=0 1 2 3 4 5 6 7 8
cat_threshold=135 264 16 1 6 20 10 28
is_linear=0
shrinkage=0.05


Tree=30
num_leaves=10
num_cat=9
split_feature=1 1 1 1 1 2 3 3 2
split_gain=1.11453e+10 2.45448e+10 5.40745e+10 3.70791e+09 2.26268e+08 1.19791e+08 9.75601e+07 4.20316e+06 1.96444e+06
threshold=0 1 2 3 4 5 6 7 8
decision_type=9 9 9 9 9 1 1 1 1
left_child=3 -2 8 -1 6 -4 7 -5 -3
right_child=1 2 5 4 -6 -7 -8 -9 -10
leaf_value=-306.35976235122274 -56.209580847700401 -45.867453853916345 697.01235672382154 -34.030534922148654 -105.29602247935971 459.76577926763969 -74.113346112725196 -51.010308624115929 -66.595227181500405
leaf_weight=179 1866 573 307 324 400 228 642 317 164
leaf_count=179 1866 573 307 324 400 228 642 317 164
internal_value=1.83157 59.2756 227.807 -94.7873 -70.6083 606.197 -59.063 -43.0823 -51.3096
internal_weight=5000 3138 1272 1862 1683 535 1283 641 737
internal_count=5000 3138 1272 1862 1683 535 1283 641 737
cat_boundaries=0 1 2 3 4 5 6 7 8 9
cat_threshold=389 10 16 1 260 20 10 2 28
is_linear=0
shrinkage=0.05


Tree=31
num_leaves=10
num_cat=9
split_feature=1 1 1 1 3 1 3 2 2
split_gain=1.10374e+10 2.12015e+10 4.89799e+10 3.44275e+09 2.44167e+08 2.13989e+08 4.36032e+07 3.31125e+06 2.03631e+06
threshold=0 1 2 3 4 5 6 7 8
decision_type=9 9 9 9 1 9 1 1 1
left_child=3 7 8 -1 -4 6 -5 -2 -3
right_child=1 2 4 5 -6 -7 -8 -9 -10
leaf_value=-291.85225028789864 -41.94302811818423 -43.613418669045281 374.99158250991616 -45.115605658895163 634.93381500943667 -100.15963097828191 -66.593581440848979 -56.324119616107652 -63.456830994014084
leaf_weight=179 404 573 136 742 399 400 730 1273 164
leaf_count=179 404 573 136 742 399 400 730 1273 164
internal_value=1.78172 63.65 216.824 -87.0605 576.948 -66.0317 -56.1445 -53.1288 -48.8194
internal_weight=5000 2949 1272 2051 535 1872 1472 1677 737
internal_count=5000 2949 1272 2051 535 1872 1472 1677 737
cat_boundaries=0 1 2 3 4 5 6 7 8 9
cat_threshold=387 12 16 1 2 258 10 8 28
is_linear=0
shrinkage=0.05


Tree=32
num_leaves=12
num_cat=11
split_feature=1 1 1 1 2 1 3 2 2 3 3
split_gain=9.28817e+09 1.9966e+10 4.4353e+10 3.07033e+09 3.4813e+08 1.86212e+08 4.31129e+07 5.09156e+06 222075 6.64258e+07 3.1354e+06
threshold=0 1 2 3 4 5 6 7 8 9 10
decision_type=9 9 9 9 1 9 1 1 1 1 1
left_child=3 7 8 -1 -4 6 -5 -2 9 -3 -10
right_child=1 2 4 5 -6 -7 -8 -9 10 -11 -12
leaf_value=-278.03173425260678 -44.882162035666184 -15.434828922377159 635.75493600015011 -41.993480194470273 410.44334756226101 -95.27379697846203 -64.243927412542959 -56.657805384918191 -38.389365403370192 -60.676374608441137 -64.031157430165123
leaf_weight=179 976 189 307 659 228 400 654 860 176 173 199
leaf_count=179 976 189 307 659 228 400 654 860 176 173 199
internal_value=1.72273 54.835 206.335 -85.3638 549.027 -63.7341 -53.4782 -50.675 -46.4501 -38.1057 -53.3063
internal_weight=5000 3108 1272 1892 535 1713 1313 1836 737 362 375
internal_count=5000 3108 1272 1892 535 1713 1313 1836 737 362 375
cat_boundaries=0 1 2 3 4 5 6 7 8 9 10 11
cat_threshold=135 264 16 1 20 6 10 12 24 12 3
is_linear=0
shrinkage=0.05


Tree=33
num_leaves=11
num_cat=10
split_feature=1 1 1 1 3 1 3 3 2 3
split_gain=8.30676e+09 1.8194e+10 4.01815e+10 2.77796e+09 4.05582e+08 1.66901e+08 8.44439e+07 6.75213e+06 3.01103e+06 2.47368e+07
threshold=0 1 2 3 4 5 6 7 8 9
decision_type=9 9 9 9 1 9 1 1 1 1
left_child=3 -2 8 -1 -4 6 7 -5 9 -3
right_child=1 2 4 5 -6 -7 -8 -9 -10 -11
leaf_value=-264.86568275936065 -48.172379363876296 -17.764512277872136 332.31393156704843 -27.74326296994786 577.66284941338688 -90.626292509916368 -64.70497683780782 -43.9187639563091 -58.038243618230709 -46.184614632549767
leaf_weight=179 1866 146 136 324 399 400 642 317 164 427
leaf_count=179 1866 146 136 324 399 400 642 317 164 427
internal_value=1.66525 51.2573 196.357 -81.7477 522.536 -60.8223 -50.9013 -36.2944 -44.2471 -39.3721
internal_weight=5000 3138 1272 1862 535 1683 1283 641 737 573
internal_count=5000 3138 1272 1862 535 1683 1283 641 737 573
cat_boundaries=0 1 2 3 4 5 6 7 8 9 10
cat_threshold=389 10 16 1 2 260 10 2 28 8
is_linear=0
shrinkage=0.05


Tree=34
num_leaves=13
num_cat=12
split_feature=1 1 1 1 2 3 1 3 2 3 2 2
split_gain=7.63096e+09 1.63504e+10 3.63874e+10 2.53308e+09 5.11579e+08 1.66377e+08 1.52221e+08 3.74814e+07 6.46865e+06 1.72741e+06 3.26148e+07 2.62664e+07
threshold=0 1 2 3 4 5 6 7 8 9 10 11
decision_type=9 9 9 9 1 1 9 1 1 1 1 1
left_child=3 8 9 -1 -4 -6 7 -5 -2 11 -11 -3
right_child=1 2 4 6 5 -7 -8 -9 -10 10 -12 -13
leaf_value=-252.32309963892376 -40.235026101964486 -18.270273020341225 580.05514234909879 -37.816567552386488 466.77225006739303 243.0287428557873 -86.205498212895748 -58.355449808020914 -51.43748220399879 -61.313430175781257 -24.491695496303585 -49.116329652998189
leaf_weight=179 976 184 307 659 110 118 400 654 860 240 143 170
leaf_count=179 976 184 307 659 110 118 400 654 860 240 143 170
internal_value=1.60678 49.7481 186.846 -77.3295 497.244 366.052 -57.6852 -48.4107 -45.7326 -42.1164 -48.5384 -34.0257
internal_weight=5000 3108 1272 1892 535 228 1713 1313 1836 737 383 354
internal_count=5000 3108 1272 1892 535 228 1713 1313 1836 737 383 354
cat_boundaries=0 1 2 3 4 5 6 7 8 9 10 11 12
cat_threshold=135 264 16 1 20 9 6 10 12 10 14 12
is_linear=0
shrinkage=0.05


Tree=35
num_leaves=12
num_cat=11
split_feature=1 1 1 1 3 1 3 3 3 2 2
split_gain=6.83264e+09 1.49168e+10 3.30047e+10 2.29161e+09 4.62515e+08 1.36308e+08 7.47991e+07 7.22008e+06 1.52787e+06 2.94674e+07 2.38534e+07
threshold=0 1 2 3 4 5 6 7 8 9 10
decision_type=9 9 9 9 1 9 1 1 1 1 1
left_child=3 -2 8 -1 -4 6 7 -5 10 -10 -3
right_child=1 2 4 5 -6 -7 -8 -9 9 -11 -12
leaf_value=-240.37446642275211 -43.467124722043337 -17.403848807283286 566.04905032491854 -24.352709083785555 364.37870726002211 -82.000350976688111 -58.998290153195164 -39.740278529537562 -58.37038435573578 -23.347149025926402 -46.796947539647419
leaf_weight=179 1866 184 267 324 268 400 642 317 240 143 170
leaf_count=179 1866 184 267 324 268 400 642 317 240 143 170
internal_value=1.58747 46.5642 177.947 -74.0634 473.565 -55.0596 -46.0911 -32.456 -40.1131 -46.2206 -32.417
internal_weight=5000 3138 1272 1862 535 1683 1283 641 737 383 354
internal_count=5000 3138 1272 1862 535 1683 1283 641 737 383 354
cat_boundaries=0 1 2 3 4 5 6 7 8 9 10 11
cat_threshold=389 10 16 1 5 260 10 2 10 14 12
is_linear=0
shrinkage=0.05


Tree=36
num_leaves=13
num_cat=12
split_feature=1 1 1 1 2 3 3 1 3 2 2 3
split_gain=6.76784e+09 1.28766e+10 2.9903e+10 2.12714e+09 6.08739e+08 2.75819e+08 1.60963e+08 1.28788e+08 3.29814e+07 8.08045e+06 4.02825e+06 2.08082e+07
threshold=0 1 2 3 4 5 6 7 8 9 10 11
decision_type=9 9 9 9 1 1 1 9 1 1 1 1
left_child=3 9 10 -1 6 -6 -4 8 -5 -2 11 -3
right_child=1 2 4 7 5 -7 -8 -9 -10 -11 -12 -13
leaf_value=-228.99165398128449 -30.867465029419336 -14.395025014571656 651.93606066107759 -34.605498810413671 423.97219092369079 210.2256222844124 380.58756586406048 -78.000335970157536 -52.607654661971175 -43.986152392287835 -50.884049509859636 -39.907991614221714
leaf_weight=179 404 146 150 742 110 118 157 400 730 1273 164 427
leaf_count=179 404 146 150 742 110 118 157 400 730 1273 164 427
internal_value=1.53765 49.9834 169.356 -68.0313 450.74 326.83 529.552 -51.5054 -43.8279 -41.0275 -38.2051 -33.7657
internal_weight=5000 2949 1272 2051 535 228 307 1872 1472 1677 737 573
internal_count=5000 2949 1272 2051 535 228 307 1872 1472 1677 737 573
cat_boundaries=0 1 2 3 4 5 6 7 8 9 10 11 12
cat_threshold=387 12 16 1 20 9 5 258 10 8 28 8
is_linear=0
shrinkage=0.05


Tree=37
num_leaves=14
num_cat=13
split_feature=1 1 1 1 2 3 3 1 3 2 2 3 3
split_gain=5.70689e+09 1.21731e+10 2.71735e+10 1.89765e+09 5.45097e+08 2.51816e+08 1.47282e+08 1.12249e+08 3.14845e+07 8.02774e+06 2.25229e+06 5.94631e+07 1.03395e+07
threshold=0 1 2 3 4 5 6 7 8 9 10 11 12
decision_type=9 9 9 9 1 1 1 9 1 1 1 1 1
left_child=3 9 10 -1 6 -6 -4 8 -5 -2 11 -3 -12
right_child=1 2 4 7 5 -7 -8 -9 -10 -11 12 -13 -14
leaf_value=-218.14786842184722 -34.061467720673974 -8.5178063661009826 621.37656621277335 -32.217393454361392 404.54013137181602 200.53553768759593 362.69767061793164 -74.195438370413896 -50.675093062868321 -44.543417010800596 -27.972788604100543 -50.220637643532683 -52.997672811079262
leaf_weight=179 976 189 150 659 110 118 157 400 654 860 176 173 199
leaf_count=179 976 189 150 659 110 118 157 400 654 860 176 173 199
internal_value=1.57002 43.2014 161.497 -66.6939 429.732 311.821 504.703 -49.6935 -41.7246 -39.186 -36.3653 -29.2619 -42.2843
internal_weight=5000 3108 1272 1892 535 228 307 1713 1313 1836 737 362 375
internal_count=5000 3108 1272 1892 535 228 307 1713 1313 1836 737 362 375
cat_boundaries=0 1 2 3 4 5 6 7 8 9 10 11 12 13
cat_threshold=135 264 16 1 20 9 5 6 10 12 24 12 3
is_linear=0
shrinkage=0.05


Tree=38
num_leaves=15
num_cat=14
split_feature=1 1 1 1 2 3 3 1 3 3 3 3 2 2
split_gain=5.11855e+09 1.11263e+10 2.46962e+10 1.71653e+09 4.88011e+08 2.29899e+08 1.34756e+08 1.00394e+08 6.44799e+07 8.2538e+06 2.66078e+06 2.30374e+06 2.82966e+07 2.1918e+07
threshold=0 1 2 3 4 5 6 7 8 9 10 11 12 13
decision_type=9 9 9 9 1 1 1 9 1 1 1 1 1 1
left_child=3 10 11 -1 6 -6 -4 8 9 -5 -2 13 -13 -3
right_child=1 2 4 7 5 -7 -8 -9 -10 -11 -12 12 -14 -15
leaf_value=-207.81758488246373 -32.89599959127198 -13.738902590201073 592.24953693389887 -19.59781963568248 385.99871053695682 191.29210660457613 345.64870677429758 -70.57615090172466 -51.589165192732793 -34.25600777423346 -41.439711277315524 -51.732961687183376 -18.772749303213132 -41.142582330703739
leaf_weight=179 961 184 150 324 110 118 157 400 642 317 905 240 143 170
leaf_count=179 961 184 150 324 110 118 157 400 642 317 905 240 143 170
internal_value=1.59108 40.5186 153.988 -63.8874 409.704 297.501 481.02 -47.4423 -39.7398 -27.2617 -37.2385 -34.6405 -40.2175 -27.6676
internal_weight=5000 3138 1272 1862 535 228 307 1683 1283 641 1866 737 383 354
internal_count=5000 3138 1272 1862 535 228 307 1683 1283 641 1866 737 383 354
cat_boundaries=0 1 2 3 4 5 6 7 8 9 10 11 12 13 14
cat_threshold=389 10 16 1 20 9 5 260 10 2 12 10 14 12
is_linear=0
shrinkage=0.05


Tree=39
num_leaves=18
num_cat=17
split_feature=1 1 1 1 3 3 2 1 2 1 3 2 2 1 2 2 2
split_gain=4.97924e+09 9.39133e+09 1.971e+10 1.48226e+09 5.46813e+08 1.83858e+08 1.35637e+08 9.29371e+07 9.28566e+07 6.80126e+07 3.39796e+07 2.249e+07 1.47917e+07 5.02006e+06 3.06911e+06 2.28703e+06 321833
threshold=0 1 2 3 4 5 6 7 8 9 10 11 12 13 14 15 16
decision_type=9 9 9 9 1 1 1 9 1 9 1 1 1 9 1 1 1
left_child=3 14 10 -1 -4 6 -5 8 9 16 -3 -12 -11 -10 -2 -9 -7
right_child=1 2 4 5 -6 7 -8 15 13 12 11 -13 -14 -15 -16 -17 -18
leaf_value=-197.97648979267748 -31.251886767911881 -15.901894038568731 469.66470640284069 -47.998793985081626 294.8466709466922 8.1847065842996436 -115.43101374104037 -43.17438655833265 -37.372863918685916 -17.191813293195541 -20.174929907072837 -50.748834176821134 -42.253007194472531 -61.646988786969871 -40.955135039923547 -76.287059148152679 3.0698460457541725
leaf_weight=179 1451 179 159 227 451 117 169 133 240 176 124 418 154 158 401 164 100
leaf_count=179 1451 179 159 227 451 117 169 133 240 176 124 418 154 158 401 164 100
internal_value=1.60469 39.2661 140.096 -64.2328 347.254 -48.5047 -78.911 -38.257 -29.7905 -15.7092 -37.5231 -44.2463 -29.7858 -48.2841 -33.5615 -63.3482 6.0667
internal_weight=5000 3183 1331 1817 610 1638 396 1242 945 547 721 542 330 398 1852 297 217
internal_count=5000 3183 1331 1817 610 1638 396 1242 945 547 721 542 330 398 1852 297 217
cat_boundaries=0 1 2 3 4 5 6 7 8 9 10 11 12 13 14 15 16 17
cat_threshold=163 24 256 1 1 1 7 34 20 32 2 8 4 2 28 17 4
is_linear=0
shrinkage=0.05


Tree=40
num_leaves=18
num_cat=17
split_feature=1 1 1 1 3 3 2 2 2 3 3 3 2 2 3 3 3
split_gain=5.07507e+09 7.69178e+09 1.41868e+10 1.15522e+09 8.32051e+08 1.51949e+08 1.09239e+08 5.86161e+07 4.31445e+07 1.82442e+08 1.00018e+08 2.6063e+07 1.83051e+07 2.85273e+06 5.34667e+06 1.49796e+06 301055
threshold=0 1 2 3 4 5 6 7 8 9 10 11 12 13 14 15 16
decision_type=9 9 9 9 1 1 1 1 1 1 1 1 1 1 1 1 1
left_child=3 13 12 -1 -4 6 -5 -6 9 -7 -10 -11 -3 14 -2 -15 -14
right_child=1 2 4 5 7 8 -8 -9 10 11 -12 -13 16 15 -16 -17 -18
leaf_value=-188.60141238863505 -24.965668084643433 -21.243654278285891 379.58651561255527 -49.566188628778562 252.04816570156311 3.9469571605458991 -115.6260506954599 155.56166926431393 -37.996568777654083 -36.460632927547437 -93.108519635019434 -69.393273381599315 -27.798534203855787 -29.051210889771085 -34.149116725583376 -47.055259586515888 -46.011753769985603
leaf_weight=179 735 243 193 183 405 212 178 171 298 229 148 201 139 201 716 200 369
leaf_count=179 735 243 193 183 405 212 178 171 298 229 148 201 139 201 716 200 369
internal_value=1.52219 36.5034 119.515 -70.7226 269.336 -54.9677 -84.3773 226.547 -44.53 -34.4783 -57.9256 -53.082 -35.4206 -31.9028 -29.7 -38.9572 -41.6611
internal_weight=5000 3372 1520 1628 769 1449 361 576 1088 642 446 430 751 1852 1451 401 508
internal_count=5000 3372 1520 1628 769 1449 361 576 1088 642 446 430 751 1852 1451 401 508
cat_boundaries=0 1 2 3 4 5 6 7 8 9 10 11 12 13 14 15 16 17
cat_threshold=165 24 2 1 1 1 7 22 20 8 6 2 4 28 12 6 8
is_linear=0
shrinkage=0.05


Tree=41
num_leaves=13
num_cat=12
split_feature=1 1 1 1 3 3 2 2 3 3 3 3
split_gain=5.48343e+09 9.38051e+09 2.28328e+10 1.05114e+09 4.45252e+08 7.5124e+07 1.65639e+07 2.72093e+06 4.8336e+06 1.35927e+06 313475 178339
threshold=0 1 2 3 4 5 6 7 8 9 10 11
decision_type=9 9 9 9 1 1 1 1 1 1 1 1
left_child=3 7 6 -1 -4 -5 10 8 -2 -9 -3 -8
right_child=1 2 4 5 -6 -7 11 9 -10 -11 -12 -13
leaf_value=-179.67028406978284 -23.734140909630181 -12.978416655528344 239.42039432003077 -40.92263027819439 436.63077457726445 -64.89174640865248 -26.501890311785196 -27.667491882559251 -32.465179940594297 -44.814532379877001 -24.724696180943788 -43.771867972376484
leaf_weight=179 735 108 136 837 399 846 139 201 716 200 135 369
leaf_count=179 735 108 136 837 399 846 139 201 716 200 135 369
internal_value=1.4431 41.7351 144.971 -66.3283 391.812 -53.2834 -33.712 -30.344 -28.2352 -37.1019 -20.2235 -39.6493
internal_weight=5000 3138 1286 1862 535 1683 751 1852 1451 401 243 508
internal_count=5000 3138 1286 1862 535 1683 751 1852 1451 401 243 508
cat_boundaries=0 1 2 3 4 5 6 7 8 9 10 11 12
cat_threshold=389 24 2 1 2 10 4 28 12 6 6 8
is_linear=0
shrinkage=0.05


Tree=42
num_leaves=18
num_cat=17
split_feature=1 1 1 3 1 2 3 2 2 3 3 3 3 2 2 3 3
split_gain=5.03136e+09 6.95982e+09 1.42257e+10 1.00143e+09 8.32041e+08 3.333e+08 1.3135e+08 9.04986e+07 3.68106e+07 1.49826e+08 9.10408e+07 3.00173e+07 2.93827e+07 1.87557e+07 2.58932e+06 4.36976e+06 1.23341e+06
threshold=0 1 2 3 4 5 6 7 8 9 10 11 12 13 14 15 16
decision_type=9 9 9 1 9 1 1 1 1 1 1 1 1 1 1 1 1
left_child=4 14 11 -4 -1 -5 7 -6 9 -8 -10 -3 -11 -13 15 -2 -16
right_child=1 2 3 5 6 -7 8 -9 10 12 -12 13 -14 -15 16 -17 -18
leaf_value=-171.16209320391297 -22.563362381058255 -23.895859740461624 375.29903750895869 165.62489897447293 -51.80557331557101 272.81182174888448 -2.1391996443808616 -114.14959354451362 -40.525418103863672 -37.034748602511989 -94.085088028485259 -27.687404859599781 -71.435170534323746 -59.397305616708564 -26.349680190967725 -30.864280105724973 -42.680506998470854
leaf_weight=179 735 179 194 337 183 268 212 178 298 229 148 124 201 418 201 716 200
leaf_count=179 735 179 194 337 183 268 212 178 298 229 148 124 201 418 201 716 200
internal_value=1.38633 36.2171 115.18 259.425 -70.5461 216.77 -57.0287 -84.7941 -47.1278 -37.4218 -59.9721 -46.0307 -54.373 -52.7757 -28.8614 -26.8427 -35.335
internal_weight=5000 3372 1520 799 1628 605 1449 361 1088 642 446 721 430 542 1852 1451 401
internal_count=5000 3372 1520 799 1628 605 1449 361 1088 642 446 721 430 542 1852 1451 401
cat_boundaries=0 1 2 3 4 5 6 7 8 9 10 11 12 13 14 15 16 17
cat_threshold=165 24 256 1 1 25 1 7 20 8 6 2 2 8 28 12 6
is_linear=0
shrinkage=0.05


Tree=43
num_leaves=15
num_cat=14
split_feature=1 1 1 3 2 1 2 3 3 3 2 3 3 2
split_gain=5.26443e+09 1.39059e+10 5.33907e+10 3.05022e+08 1.39316e+08 8.57872e+07 3.2658e+07 3.19846e+07 2.02267e+07 4.16761e+06 2.45899e+06 3.95043e+06 1.11921e+06 261276
threshold=0 1 2 3 4 5 6 7 8 9 10 11 12 13
decision_type=9 9 9 1 1 9 1 1 1 1 1 1 1 1
left_child=5 8 3 -3 13 10 7 -7 -2 -8 11 -1 -12 -5
right_child=1 2 -4 4 -6 6 9 -9 -10 -11 12 -13 -14 -15
leaf_value=-21.45033738743939 -40.021300240533868 -130.8507661569314 855.94092516194928 -5.4111014839232441 -70.807157736732847 -17.562081261210974 -35.941902638096963 -42.697645367240987 -60.439441287157763 -60.959338229205336 -25.094636743102598 -29.34232228373693 -40.648102931976325 -11.408226387717507
leaf_weight=735 475 112 227 117 158 215 145 681 487 431 201 716 200 100
leaf_count=735 475 112 227 117 158 215 145 681 487 431 201 716 200 100
internal_value=1.31681 73.3142 239.028 -59.9628 -35.9421 -35.1001 -44.4734 -36.9266 -50.8732 -55.3824 -27.4512 -25.5188 -33.6522 -8.55557
internal_weight=5000 1676 714 487 375 3324 1472 896 962 576 1852 1451 401 217
internal_count=5000 1676 714 487 375 3324 1472 896 962 576 1852 1451 401 217
cat_boundaries=0 1 2 3 4 5 6 7 8 9 10 11 12 13 14
cat_threshold=282 132 32 1 20 24 13 2 10 8 28 12 6 4
is_linear=0
shrinkage=0.05


Tree=44
num_leaves=18
num_cat=17
split_feature=1 1 1 1 3 2 3 1 2 3 3 3 2 2 3 1 3
split_gain=4.87823e+09 6.35752e+09 1.59742e+10 1.50516e+09 9.50414e+08 2.46756e+08 1.06851e+08 1.32888e+08 3.00184e+07 1.34838e+08 8.76096e+07 2.99441e+07 4.08243e+07 3.45842e+07 2.64538e+07 7.77892e+06 6.42624e+06
threshold=0 1 2 3 4 5 6 7 8 9 10 11 12 13 14 15 16
decision_type=9 9 9 9 1 1 1 9 1 1 1 1 1 1 1 9 1
left_child=3 11 16 -1 -4 -6 7 -5 9 -8 15 13 -13 -2 -11 -10 -3
right_child=1 2 4 6 5 -7 8 -9 10 14 -12 12 -14 -15 -16 -17 -18
leaf_value=-203.58944972204785 -43.235311609276842 -17.363460966874452 383.12932573865305 -51.167499244719401 176.42529261828145 280.43530984034481 -0.63844631985501132 -124.84450428290445 -19.318389960924787 -33.832822174407447 -87.336521120312852 -22.663001933601336 -57.503766842082726 -19.026387162446234 -66.041403044569549 -43.858051384819881 -29.020256086067253
leaf_weight=179 431 287 191 249 343 251 212 112 110 229 148 151 579 311 201 188 828
leaf_count=179 431 287 191 249 343 251 212 112 110 229 148 151 579 311 201 188 828
internal_value=1.2773 35.5742 95.814 -69.5517 267.271 224.291 -51.7116 -76.7747 -42.7721 -33.9916 -54.3888 -42.3028 -50.7006 -33.4764 -50.0472 -35.7211 -26.2008
internal_weight=5000 3372 1900 1628 785 594 1449 361 1088 642 446 1472 730 742 430 298 1115
internal_count=5000 3372 1900 1628 785 594 1449 361 1088 642 446 1472 730 742 430 298 1115
cat_boundaries=0 1 2 3 4 5 6 7 8 9 10 11 12 13 14 15 16 17
cat_threshold=165 258 8 1 1 25 1 132 20 8 6 10 8 26 2 32 4
is_linear=0
shrinkage=0.05


Tree=45
num_leaves=15
num_cat=14
split_feature=1 1 1 3 2 1 3 2 3 2 2 3 2 2
split_gain=5.17746e+09 1.2709e+10 4.86431e+10 2.54286e+08 1.26064e+08 5.64961e+07 4.61724e+07 2.86758e+07 1.69761e+07 1.69176e+07 6.465e+06 5.76833e+06 680343 541970
threshold=0 1 2 3 4 5 6 7 8 9 10 11 12 13
decision_type=9 9 9 1 1 9 1 1 1 1 1 1 1 1
left_child=5 8 3 -3 13 11 7 -7 -2 -10 -9 -1 -8 -5
right_child=1 2 -4 4 -6 6 12 10 9 -11 -12 -13 -14 -15
leaf_value=-16.5245199335946 -36.246137331883936 -119.11393281319101 819.91143363920446 -3.4505981805756338 -65.597412964275904 -55.159330499772551 -34.65253464495882 -19.884747340388746 -27.814416389791376 -61.562249653096764 -31.682121180284664 -27.586558481787723 -50.569713747534564 -9.5902371788024912
leaf_weight=287 475 112 227 117 158 129 225 343 107 380 624 828 888 100
leaf_count=287 475 112 227 117 158 129 225 343 107 380 624 828 888 100
internal_value=1.21549 72.616 231.041 -54.4173 -32.5026 -34.899 -39.8053 -31.4403 -46.1347 -54.8563 -27.7439 -24.9114 -47.6892 -6.57776
internal_weight=5000 1676 714 487 375 3324 2209 1096 962 487 967 1115 1113 217
internal_count=5000 1676 714 487 375 3324 2209 1096 962 487 967 1115 1113 217
cat_boundaries=0 1 2 3 4 5 6 7 8 9 10 11 12 13 14
cat_threshold=282 132 32 1 20 8 10 2 10 8 4 4 8 4
is_linear=0
shrinkage=0.05


Tree=46
num_leaves=20
num_cat=19
split_feature=1 1 1 1 3 3 1 2 2 3 3 3 1 3 2 1 3 2 3
split_gain=4.74186e+09 6.71783e+09 1.34733e+10 2.2742e+09 7.55724e+08 8.73358e+07 1.12349e+08 6.7536e+07 2.50253e+07 1.20843e+08 8.29682e+07 2.33068e+07 2.26148e+07 1.02891e+07 2.11206e+07 9.70143e+06 6.35558e+06 5.80268e+06 5.17756e+06
threshold=0 1 2 3 4 5 6 7 8 9 10 11 12 13 14 15 16 17 18
decision_type=9 9 9 9 1 1 9 1 1 1 1 1 9 1 1 9 1 1 1
left_child=3 12 16 -1 -4 6 -5 -6 9 -7 15 -11 18 -14 -15 -10 -3 -18 -2
right_child=1 2 4 5 7 8 -8 -9 10 11 -12 -13 13 14 -16 -17 17 -19 -20
leaf_value=-232.77506564104999 -15.726112293233776 -51.212265334453882 363.94050829751154 -46.152568181969485 245.6881672377439 0.64158153254706585 -113.64641438468557 154.88248559603323 -15.426421966552736 -30.936520218749429 -81.102632435665853 -60.902023823905338 -50.443531538577794 -19.315274642726834 -41.66382986866698 -39.748183115564217 -23.167636209345879 -39.321424589425746 -26.22369040766451
leaf_weight=179 287 181 193 249 378 212 112 198 110 229 148 201 178 275 284 188 225 345 828
leaf_count=179 287 181 193 249 378 212 112 198 110 229 148 201 178 275 284 188 225 345 828
internal_value=1.18076 34.9952 112.573 -68.6509 258.565 -46.9196 -69.5913 217.649 -38.8317 -30.8309 -49.42 -46.0094 -28.9385 -36.4624 -31.2021 -31.5627 -38.3509 -33.4543 -23.6854
internal_weight=5000 3372 1520 1628 769 1449 361 576 1088 642 446 430 1852 737 559 298 751 570 1115
internal_count=5000 3372 1520 1628 769 1449 361 576 1088 642 446 430 1852 737 559 298 751 570 1115
cat_boundaries=0 1 2 3 4 5 6 7 8 9 10 11 12 13 14 15 16 17 18 19
cat_threshold=165 24 2 1 1 1 132 14 20 8 6 2 8 1 24 32 1 5 4
is_linear=0
shrinkage=0.05


Tree=47
num_leaves=15
num_cat=14
split_feature=1 1 1 1 3 3 2 2 1 3 2 3 2 3
split_gain=5.37804e+09 7.90883e+09 1.8636e+10 1.96323e+09 5.30574e+08 1.31441e+08 1.1194e+08 3.52336e+07 2.06361e+07 9.41135e+06 1.91269e+07 5.84819e+06 5.22006e+06 4.6471e+06
threshold=0 1 2 3 4 5 6 7 8 9 10 11 12 13
decision_type=9 9 9 9 1 1 1 1 9 1 1 1 1 1
left_child=3 8 11 -1 -4 6 -5 -7 13 -10 -11 -3 -13 -2
right_child=1 2 4 5 -6 7 -8 -9 9 10 -12 12 -14 -15
leaf_value=-221.75211935497464 -14.966281627906293 -48.78571575124851 452.97258320870492 -42.799970419032903 283.30857448125352 -66.217818752024911 -104.55276217166848 -36.620132587107811 -48.055512770186084 -18.383398158257467 -39.651495081226841 -22.058547513332773 -37.41073499531813 -24.928152592224126
leaf_weight=179 287 181 159 194 451 149 201 1064 178 275 284 225 345 828
leaf_count=179 287 181 159 194 451 149 201 1064 178 275 284 225 345 828
internal_value=1.10946 39.7484 130.835 -68.2035 334.125 -49.8458 -76.0292 -40.7675 -27.5328 -34.7138 -29.6956 -36.5081 -31.8355 -22.5198
internal_weight=5000 3213 1361 1787 610 1608 395 1213 1852 737 559 751 570 1115
internal_count=5000 3213 1361 1787 610 1608 395 1213 1852 737 559 751 570 1115
cat_boundaries=0 1 2 3 4 5 6 7 8 9 10 11 12 13 14
cat_threshold=417 24 2 1 1 1 7 2 8 1 24 1 5 4
is_linear=0
shrinkage=0.05


Tree=48
num_leaves=18
num_cat=17
split_feature=1 1 1 1 3 3 2 2 3 1 3 3 2 3 3 2 3
split_gain=5.7169e+09 9.19926e+09 2.74239e+10 1.74659e+09 2.12317e+08 1.31776e+08 1.8779e+08 3.12527e+07 1.7676e+08 1.88298e+07 1.84252e+07 8.60802e+06 1.73213e+07 5.86837e+06 5.3803e+06 4.69577e+06 4.17081e+06
threshold=0 1 2 3 4 5 6 7 8 9 10 11 12 13 14 15 16
decision_type=9 9 9 9 1 1 1 1 1 9 1 1 1 1 1 1 1
left_child=3 9 14 -1 -4 6 -5 8 13 16 -9 -11 -13 -7 -3 -16 -2
right_child=1 2 4 5 -6 7 -8 10 -10 11 -12 12 -14 -15 15 -17 -18
leaf_value=-211.25116255018449 -14.243163207885795 -46.474141433476156 611.92834791380267 -127.34164124018906 385.96015722946817 -6.7633295250515788 -49.701573987007144 -32.064541175310005 -66.507555637282394 -45.780545569988014 -57.845680152305533 -17.496478140814261 -37.736355760470545 -19.131502650465286 -21.00255280667163 -35.592890679265416 -23.69661868341214
leaf_weight=179 287 181 116 128 332 238 310 205 237 178 438 275 284 214 225 345 828
leaf_count=179 287 181 116 128 332 238 310 205 237 178 438 275 284 214 225 345 828
internal_value=1.055 43.7367 151.078 -65.6473 456.553 -49.8183 -74.7269 -41.1318 -32.0317 -26.1953 -50.2431 -33.0492 -28.2618 -12.9064 -34.7538 -30.295 -21.4115
internal_weight=5000 3051 1199 1949 448 1770 438 1332 689 1852 643 737 559 452 751 570 1115
internal_count=5000 3051 1199 1949 448 1770 438 1332 689 1852 643 737 559 452 751 570 1115
cat_boundaries=0 1 2 3 4 5 6 7 8 9 10 11 12 13 14 15 16 17
cat_threshold=293 24 2 1 1 1 16 12 10 8 4 1 24 2 1 5 4
is_linear=0
shrinkage=0.05


Tree=49
num_leaves=15
num_cat=14
split_feature=1 1 1 1 3 3 2 1 1 3 2 3 2 3
split_gain=5.71844e+09 8.12259e+09 2.09929e+10 1.45888e+09 4.84836e+08 5.71451e+07 2.60633e+07 1.7181e+07 1.60667e+07 7.87279e+06 1.56862e+07 4.94896e+06 4.22398e+06 3.74317e+06
threshold=0 1 2 3 4 5 6 7 8 9 10 11 12 13
decision_type=9 9 9 9 1 1 1 9 9 1 1 1 1 1
left_child=3 7 11 -1 -4 8 -6 13 -5 -9 -11 -3 -13 -2
right_child=1 2 4 5 6 -7 -8 9 -10 10 -12 12 -14 -15
leaf_value=-201.24746773798 -13.554983411332977 -44.272093328256261 453.47018218608537 -36.002556311260172 352.19267376069547 -63.367696604592226 199.76375178394701 -43.613275558390519 -57.900774730756453 -16.652351295153302 -35.913715727150844 -19.997111001902439 -33.863376454098123 -22.525926496959816
leaf_weight=179 287 181 267 641 129 846 139 178 196 275 284 225 345 828
leaf_count=179 287 181 267 641 129 846 139 178 196 275 284 225 345 828
internal_value=1.02078 42.1689 138.236 -68.1858 374.919 -52.9285 283.164 -24.9229 -41.7535 -31.4643 -26.8973 -33.0838 -28.829 -20.3578
internal_weight=5000 3138 1286 1862 535 1683 268 1852 837 737 559 751 570 1115
internal_count=5000 3138 1286 1862 535 1683 268 1852 837 737 559 751 570 1115
cat_boundaries=0 1 2 3 4 5 6 7 8 9 10 11 12 13 14
cat_threshold=389 24 2 1 5 10 12 8 260 1 24 1 5 4
is_linear=0
shrinkage=0.05


Tree=50
num_leaves=19
num_cat=18
split_feature=1 1 1 1 3 2 3 2 3 1 2 3 3 3 2 3 2 3
split_gain=5.46166e+09 6.11392e+09 1.30048e+10 1.15001e+09 9.11012e+08 2.4575e+08 1.08833e+08 6.55734e+07 2.26186e+07 1.5676e+07 1.25263e+07 1.11447e+08 5.96535e+07 1.48318e+07 1.0711e+07 7.19995e+06 1.42055e+07 3.35923e+06
threshold=0 1 2 3 4 5 6 7 8 9 10 11 12 13 14 15 16 17
decision_type=9 9 9 9 1 1 1 1 1 9 1 1 1 1 1 1 1 1
left_child=3 9 8 -1 -4 -6 7 -5 -3 17 11 -8 -12 -13 -10 -11 -17 -2
right_child=1 2 4 6 5 -7 10 -9 14 15 12 13 -14 -15 -16 16 -18 -19
leaf_value=-191.71749286550696 -12.900054233323042 -23.093322728298332 360.01939539643485 -53.80959952754678 161.48943593508918 259.52723519536232 -10.184276844359735 -110.39557202217428 -27.387760051150821 -41.548604253758782 -41.856278639954411 -40.954995315344263 -87.529620930816563 -70.881409023158355 -54.403803569134155 -15.84894851885344 -34.179107555888947 -21.413070217372411
leaf_weight=179 287 179 194 183 337 268 212 178 124 178 298 229 148 201 418 275 284 828
leaf_count=179 287 179 194 183 337 268 212 178 124 178 298 229 148 201 418 275 284 828
internal_value=1.01139 37.3027 111.314 -73.9321 249.233 208.432 -58.1674 -83.9343 -42.8446 -23.7123 -48.9313 -41.4189 -58.5996 -56.2369 -48.8311 -29.9555 -25.5986 -19.356
internal_weight=5000 3372 1520 1628 799 605 1449 361 721 1852 1088 642 446 430 542 737 559 1115
internal_count=5000 3372 1520 1628 799 605 1449 361 721 1852 1088 642 446 430 542 737 559 1115
cat_boundaries=0 1 2 3 4 5 6 7 8 9 10 11 12 13 14 15 16 17 18
cat_threshold=165 24 256 1 1 25 1 7 2 8 20 8 6 2 8 1 24 4
is_linear=0
shrinkage=0.05


Tree=51
num_leaves=17
num_cat=16
split_feature=1 1 1 1 3 2 3 1 3 2 3 3 3 2 3 1
split_gain=4.95406e+09 6.36744e+09 1.39788e+10 1.04388e+09 8.73414e+08 2.39197e+08 9.88849e+07 6.97732e+07 2.78955e+07 1.13892e+07 1.0106e+08 5.44702e+07 1.34869e+07 5.41781e+06 3.01454e+06 900205
threshold=0 1 2 3 4 5 6 7 8 9 10 11 12 13 14 15
decision_type=9 9 9 9 1 1 1 9 1 1 1 1 1 1 1 9
left_child=3 8 14 -1 -4 -6 7 -5 -2 10 -8 15 -12 -10 -3 -11
right_child=1 2 4 6 5 -7 9 -9 13 11 12 -13 -14 -15 -16 -17
leaf_value=-182.63881007199566 -56.766664376734404 -12.276768900208202 367.28307363737878 -58.524760846833921 168.6894213946953 269.43091868988853 -9.698000828102904 -118.90842998535908 -32.144978971495107 -25.293825229008995 -38.992925064533829 -83.430131315883216 -67.505304911464322 -44.553883243313145 -20.35519312938813 -46.630390138337106
leaf_weight=179 361 287 191 249 343 251 212 112 682 110 229 148 201 429 828 188
leaf_count=179 361 287 191 249 343 251 212 112 682 110 229 148 201 429 828 188
internal_value=0.955114 35.5189 95.8057 -70.4209 256.217 215.015 -55.4014 -79.9589 -42.4183 -46.5992 -39.4415 -55.8115 -53.5521 -37.2912 -18.4034 -39.8314
internal_weight=5000 3372 1900 1628 785 594 1449 361 1472 1088 642 446 430 1111 1115 298
internal_count=5000 3372 1900 1628 785 594 1449 361 1472 1088 642 446 430 1111 1115 298
cat_boundaries=0 1 2 3 4 5 6 7 8 9 10 11 12 13 14 15 16
cat_threshold=165 258 8 1 1 25 1 132 1 20 8 6 2 13 4 32
is_linear=0
shrinkage=0.05


Tree=52
num_leaves=15
num_cat=14
split_feature=1 1 1 1 3 2 3 2 3 2 2 2 3 3
split_gain=4.55768e+09 1.55243e+10 4.45809e+10 1.51683e+08 1.01043e+08 1.4133e+08 5.68826e+07 3.45576e+07 7.23737e+07 1.78916e+08 6.18933e+06 3.02005e+06 3.08775e+06 2.70509e+06
threshold=0 1 2 3 4 5 6 7 8 9 10 11 12 13
decision_type=9 9 9 9 1 1 1 1 1 1 1 1 1 1
left_child=3 4 10 13 5 -2 -5 8 9 -6 -3 -8 -13 -1
right_child=1 2 -4 6 7 -7 11 -9 -10 -11 -12 12 -14 -15
leaf_value=-11.683599152027156 -32.812991532994737 -40.590943022319252 807.98623979141939 -56.003585135089899 21.546635899657296 -115.71113676759933 -28.516946919376586 -61.942333387662579 -57.373316975970603 -44.790513644409003 -69.384113269728061 -33.707309296361863 -45.358775018384826 -19.349578669304496
leaf_weight=287 124 165 227 539 158 134 499 169 205 259 235 765 406 828
leaf_count=287 124 165 227 539 158 134 499 169 205 259 235 765 406 828
internal_value=0.908126 67.8998 262.779 -32.975 -49.9633 -78.5796 -40.6731 -39.765 -32.8546 -19.7396 -58.7866 -35.4212 -38.0969 -17.4978
internal_weight=5000 1676 627 3324 1049 258 2209 791 622 417 400 1670 1171 1115
internal_count=5000 1676 627 3324 1049 258 2209 791 622 417 400 1670 1171 1115
cat_boundaries=0 1 2 3 4 5 6 7 8 9 10 11 12 13 14
cat_threshold=282 36 128 8 1 7 1 28 10 4 17 9 10 4
is_linear=0
shrinkage=0.05


Tree=53
num_leaves=13
num_cat=12
split_feature=1 1 1 1 3 3 1 2 3 1 3 2
split_gain=4.78714e+09 5.88605e+09 1.31248e+10 1.71742e+09 7.16119e+08 8.28188e+07 6.8699e+07 6.0744e+07 4.05817e+07 4.19112e+06 2.4273e+06 1.81497e+06
threshold=0 1 2 3 4 5 6 7 8 9 10 11
decision_type=9 9 9 9 1 1 9 1 1 9 1 1
left_child=3 8 10 -1 -4 6 -5 -6 11 -7 -3 -2
right_child=1 2 4 5 7 9 -8 -9 -10 -11 -12 -13
leaf_value=-212.25182068839905 -72.9613740234375 -11.119088179736025 353.54339132121049 -52.288603354789124 235.39275262635874 -37.865726577625445 -110.14351347489435 144.3370969308674 -33.768744274290952 -52.289140920297328 -18.393645048774513 -44.820798739579722
leaf_weight=179 115 287 193 249 405 791 112 171 1129 297 828 244
leaf_count=179 115 287 193 249 405 791 112 171 1129 297 828 244
internal_value=0.883951 34.8607 93.3823 -69.279 251.068 -50.2834 -72.7231 211.285 -39.364 -42.2434 -16.6367 -55.5682
internal_weight=5000 3372 1884 1628 769 1449 361 576 1488 1088 1115 359
internal_count=5000 3372 1884 1628 769 1449 361 576 1488 1088 1115 359
cat_boundaries=0 1 2 3 4 5 6 7 8 9 10 11 12
cat_threshold=165 18 8 1 1 1 132 22 1 36 4 10
is_linear=0
shrinkage=0.05


Tree=54
num_leaves=14
num_cat=13
split_feature=1 1 1 1 3 3 1 2 2 3 2 3 3
split_gain=5.25139e+09 7.01729e+09 1.75452e+10 1.50061e+09 5.21779e+08 1.27417e+08 7.49425e+07 7.40335e+07 2.36468e+07 1.25966e+07 1.84732e+07 9.71664e+06 2.17794e+06
threshold=0 1 2 3 4 5 6 7 8 9 10 11 12
decision_type=9 9 9 9 1 1 9 1 1 1 1 1 1
left_child=3 6 11 -1 -4 7 12 -5 -7 -8 -11 -3 -2
right_child=1 2 4 5 -6 8 9 -9 -10 10 -12 -13 -14
leaf_value=-202.2007464005203 -10.581852893074755 -51.390185596259485 437.92958917363859 -48.002268763032617 272.6153516077685 -36.151101008791137 -51.716953968494501 -102.23925056728707 -55.024253135554652 -19.964027171469571 -41.291713992268058 -32.287658009919625 -17.484937027473723
leaf_weight=179 287 181 159 194 451 831 178 201 382 275 284 570 828
leaf_count=179 287 181 159 194 451 831 178 201 382 275 284 570 828
internal_value=0.848491 39.0307 124.831 -67.6424 322.074 -51.5065 -24.3542 -77.4443 -42.496 -36.8839 -31.3348 -37.5064 -15.8179
internal_weight=5000 3213 1361 1787 610 1608 1852 395 1213 737 559 751 1115
internal_count=5000 3213 1361 1787 610 1608 1852 395 1213 737 559 751 1115
cat_boundaries=0 1 2 3 4 5 6 7 8 9 10 11 12 13
cat_threshold=417 24 2 1 1 1 8 7 21 1 24 1 4
is_linear=0
shrinkage=0.05


Tree=55
num_leaves=11
num_cat=10
split_feature=1 1 1 1 3 2 3 3 2 3
split_gain=4.72956e+09 6.01034e+09 1.25386e+10 1.27743e+09 8.11732e+08 2.13733e+08 8.99648e+07 2.81538e+07 5.63773e+06 1.9541e+06
threshold=0 1 2 3 4 5 6 7 8 9
decision_type=9 9 9 9 1 1 1 1 1 1
left_child=3 7 9 -1 -4 -6 -5 -2 -9 -3
right_child=1 2 4 6 5 -7 -8 8 -10 -11
leaf_value=-192.62563061789862 -55.391643115452361 -10.070574346214833 351.86250195099939 -75.822837901051159 161.39696666127224 257.26640221972121 -44.052380879399777 -30.993134529759431 -43.210812785685199 -16.621122688780538
leaf_weight=179 361 287 191 361 343 251 1088 682 429 828
leaf_count=179 361 287 191 361 343 251 1088 682 429 828
internal_value=0.810287 34.5823 93.1542 -68.9292 245.087 205.496 -52.433 -41.1384 -36.0542 -15.0395
internal_weight=5000 3372 1900 1628 785 594 1449 1472 1111 1115
internal_count=5000 3372 1900 1628 785 594 1449 1472 1111 1115
cat_boundaries=0 1 2 3 4 5 6 7 8 9 10
cat_threshold=165 258 8 1 1 25 1 1 13 4
is_linear=0
shrinkage=0.05


Tree=56
num_leaves=15
num_cat=14
split_feature=1 1 1 1 1 3 3 2 3 1 2 3 3 2
split_gain=4.45881e+09 1.24518e+10 2.21336e+10 9.29258e+08 2.18939e+08 1.81006e+08 1.57939e+08 9.87202e+07 6.50226e+07 7.64051e+06 1.68207e+07 7.25845e+06 1.75319e+06 7.94379e+06
threshold=0 1 2 3 4 5 6 7 8 9 10 11 12 13
decision_type=9 9 9 9 9 1 1 1 1 9 1 1 1 1
left_child=4 3 6 11 12 -4 -3 -8 -6 -10 -11 -2 13 -1
right_child=1 2 5 -5 8 -7 7 -9 9 10 -12 -13 -14 -15
leaf_value=-19.416243404388428 -39.607861349409433 -98.225873224852521 586.38767938613898 -183.50393840043003 -58.186818474802607 370.51062036508711 -6.4121191352474529 -58.713814925012144 -28.936976906924414 -24.043878977357849 -43.772636409887966 -61.78145716947094 -15.799984019752905 -2.3044923782348632
leaf_weight=115 279 112 116 179 539 332 217 158 570 232 868 283 828 172
leaf_count=115 279 112 116 179 539 332 217 158 570 232 868 283 828 172
internal_value=0.799946 67.0614 187.615 -85.5271 -32.7132 437.99 -46.8874 -29.4012 -41.9013 -36.33 -39.8658 -51.6585 -14.2994 -9.584
internal_weight=5000 1676 935 741 3324 448 487 375 2209 1670 1100 562 1115 287
internal_count=5000 1676 935 741 3324 448 487 375 2209 1670 1100 562 1115 287
cat_boundaries=0 1 2 3 4 5 6 7 8 9 10 11 12 13 14
cat_threshold=282 5 32 4 8 1 1 20 1 2 8 10 4 5
is_linear=0
shrinkage=0.05


Tree=57
num_leaves=16
num_cat=15
split_feature=1 1 1 1 2 3 3 3 3 1 3 2 2 3 2
split_gain=4.6348e+09 6.25758e+09 1.21559e+10 9.4009e+08 8.72996e+08 5.22685e+09 7.88553e+08 9.07685e+07 7.311e+07 5.22804e+07 3.98686e+07 2.74485e+07 2.1002e+06 1.55057e+06 7.23282e+06
threshold=0 1 2 3 4 5 6 7 8 9 10 11 12 13 14
decision_type=9 9 9 9 1 1 1 1 1 9 1 1 1 1 1
left_child=3 10 13 -1 5 -4 -6 -5 -8 -9 11 -2 -12 14 -3
right_child=1 2 4 7 6 -7 8 9 -10 -11 12 -13 -14 -15 -16
leaf_value=-174.81420164360571 -24.23086759347386 -18.523095347595216 595.99434952565605 -77.575466226471079 259.1774940300582 83.226275269965811 158.75198154622004 -28.015745786939352 77.001601003924165 -54.190793571630458 -45.275324157341757 -47.061945136110268 -63.806371539747218 -15.019411896457251 -2.1955978131556253
leaf_weight=179 440 115 102 361 311 113 142 375 131 713 468 276 274 828 172
leaf_count=179 440 115 102 361 311 113 142 375 131 713 468 276 274 828 172
internal_value=0.791568 34.2236 93.4878 -68.2457 241.251 342.17 198.962 -53.9729 123.631 -45.5064 -43.6827 -33.5587 -52.8758 -13.6011 -9.14137
internal_weight=5000 3372 1914 1628 799 215 584 1449 273 1088 1458 716 742 1115 287
internal_count=5000 3372 1914 1628 799 215 584 1449 273 1088 1458 716 742 1115 287
cat_boundaries=0 1 2 3 4 5 6 7 8 9 10 11 12 13 14 15
cat_threshold=165 272 8 1 16 3 12 1 1 32 10 13 26 4 5
is_linear=0
shrinkage=0.05


Tree=58
num_leaves=16
num_cat=15
split_feature=1 1 1 1 3 1 1 3 2 3 2 3 2 3 2
split_gain=4.82736e+09 7.06988e+09 2.0533e+10 8.9232e+08 5.28111e+08 1.25122e+08 3.83484e+07 2.06305e+07 2.2017e+07 1.98515e+07 1.44448e+07 1.3898e+07 8.04683e+06 1.37078e+06 6.58548e+06
threshold=0 1 2 3 4 5 6 7 8 9 10 11 12 13 14
decision_type=9 9 9 9 1 9 9 1 1 1 1 1 1 1 1
left_child=3 5 7 -1 -4 13 11 -3 -9 -7 -11 -5 -6 14 -2
right_child=1 2 4 6 12 9 -8 8 -10 10 -12 -13 -14 -15 -16
leaf_value=-166.53596645133206 -17.671033514404296 -60.722465381216502 504.60528335571291 -36.938007575870451 195.33337996568139 -21.506580019754079 -66.343418115057588 -23.189670880928375 -46.801176489778122 -31.445581925642202 -55.143402394161946 -51.917156445728722 343.15545195166374 -14.277402852315607 -2.091849102816739
leaf_weight=179 115 178 125 659 113 179 400 275 284 236 306 654 297 828 172
leaf_count=179 115 178 125 659 113 179 400 275 284 236 306 654 297 828 172
internal_value=0.814334 39.1059 129.261 -61.9667 362.379 -23.716 -50.1366 -42.5494 -35.7972 -39.9804 -45.5814 -44.7351 308.035 -12.9369 -8.71918
internal_weight=5000 3108 1272 1892 535 1836 1713 737 559 721 542 1313 410 1115 287
internal_count=5000 3108 1272 1892 535 1836 1713 737 559 721 542 1313 410 1115 287
cat_boundaries=0 1 2 3 4 5 6 7 8 9 10 11 12 13 14 15
cat_threshold=135 264 16 1 1 8 6 1 24 2 11 10 9 4 5
is_linear=0
shrinkage=0.05


Tree=59
num_leaves=13
num_cat=12
split_feature=1 1 1 1 3 3 1 3 2 1 3 2
split_gain=4.55691e+09 5.99875e+09 1.20255e+10 6.77145e+08 6.45911e+08 9.43403e+07 4.21019e+07 4.06186e+07 3.76155e+07 4.63776e+06 1.21127e+06 5.99608e+06
threshold=0 1 2 3 4 5 6 7 8 9 10 11
decision_type=9 9 9 9 1 1 9 1 1 9 1 1
left_child=3 7 10 -1 -4 6 -5 -2 -6 -7 11 -3
right_child=1 2 4 5 8 9 -8 -9 -10 -11 -12 -13
leaf_value=-158.64973587409531 -57.313287443972541 -16.85816661682129 342.22425768715993 -60.465356795852244 228.60372366623707 -41.942911919999808 -113.31851583777882 -35.29689103049914 142.17557603772832 -57.726084202508588 -13.572051244419345 -1.9930035832164053
leaf_weight=179 359 115 193 249 405 791 112 1129 171 297 828 172
leaf_count=179 359 115 193 249 405 791 112 1129 171 297 828 172
internal_value=0.818469 33.9683 93.0478 -67.6364 244 -55.3828 -79.4754 -40.9558 205.809 -46.7379 -12.3052 -8.31649
internal_weight=5000 3372 1884 1628 769 1449 361 1488 576 1088 1115 287
internal_count=5000 3372 1884 1628 769 1449 361 1488 576 1088 1115 287
cat_boundaries=0 1 2 3 4 5 6 7 8 9 10 11 12
cat_threshold=165 18 8 1 1 1 132 1 22 36 4 5
is_linear=0
shrinkage=0.05


Tree=60
num_leaves=15
num_cat=14
split_feature=1 1 1 1 3 3 1 2 2 3 2 3 3 2
split_gain=4.94286e+09 6.3619e+09 1.67091e+10 5.87717e+08 4.64923e+08 1.40121e+08 1.2493e+08 5.43183e+07 2.00336e+07 1.75187e+07 2.08544e+07 4.36051e+06 1.06982e+06 5.45942e+06
threshold=0 1 2 3 4 5 6 7 8 9 10 11 12 13
decision_type=9 9 9 9 1 1 9 1 1 1 1 1 1 1
left_child=3 6 11 -1 -4 7 12 -5 -7 -8 -11 -3 13 -2
right_child=1 2 4 5 -6 8 9 -9 -10 10 -12 -13 -14 -15
leaf_value=-151.13695656534227 -16.082690283203124 -51.070808420380999 423.09608554021844 -54.514886959861308 264.51784062375214 -67.855456286256427 -55.134602274793259 -105.74005133275173 -42.082232185859702 -20.367950272225499 -42.835895999678144 -34.158672174205044 -12.90154679299539 -1.8988298646696322
leaf_weight=179 115 181 159 194 451 149 178 201 1064 275 284 570 828 172
leaf_count=179 115 181 159 194 451 149 178 201 1064 275 284 570 828 172
internal_value=0.793131 37.8368 119.533 -65.6552 312.01 -55.2642 -22.5195 -82.5486 -45.7771 -38.5059 -32.335 -38.8522 -11.7044 -7.9324
internal_weight=5000 3213 1361 1787 610 1608 1852 395 1213 737 559 751 1115 287
internal_count=5000 3213 1361 1787 610 1608 1852 395 1213 737 559 751 1115 287
cat_boundaries=0 1 2 3 4 5 6 7 8 9 10 11 12 13 14
cat_threshold=417 24 2 1 1 1 8 7 2 1 24 1 4 5
is_linear=0
shrinkage=0.05


Tree=61
num_leaves=14
num_cat=13
split_feature=1 1 1 2 3 1 3 3 3 2 2 3 2
split_gain=4.51288e+09 6.04643e+09 1.14938e+10 8.05585e+08 2.94202e+09 4.70283e+08 4.03517e+08 1.00302e+08 2.73983e+07 9.34959e+06 6.08804e+06 944421 4.97079e+06
threshold=0 1 2 3 4 5 6 7 8 9 10 11 12
decision_type=9 9 9 1 1 9 1 1 1 1 1 1 1
left_child=5 8 11 4 -4 -1 -5 -7 9 -2 -10 12 -3
right_child=1 2 3 6 -6 7 -8 -9 10 -11 -12 -13 -14
leaf_value=-143.97994362361848 -39.870360986225272 -15.342887475585938 511.84246723976139 242.21772995025015 112.71420090486264 -81.811679060150681 131.56696511898403 -48.070917691271383 -31.881694136103455 -70.1124949092614 -44.499136674702847 -12.264167278969488 -1.8091044918521419
leaf_weight=179 181 115 115 309 106 361 255 1088 682 180 429 828 172
leaf_count=179 181 115 115 309 106 361 255 1088 682 180 429 828 172
internal_value=0.756658 33.7462 92.4939 237.972 333.572 -67.3664 195.353 -56.9801 -42.1956 -56.4329 -37.1073 -11.1329 -7.56605
internal_weight=5000 3372 1900 785 221 1628 564 1449 1472 361 1111 1115 287
internal_count=5000 3372 1900 785 221 1628 564 1449 1472 361 1111 1115 287
cat_boundaries=0 1 2 3 4 5 6 7 8 9 10 11 12 13
cat_threshold=165 258 8 16 3 1 12 1 1 12 13 4 5
is_linear=0
shrinkage=0.05


Tree=62
num_leaves=13
num_cat=12
split_feature=1 1 1 1 3 2 3 2 2 1 2 3
split_gain=4.2967e+09 1.58848e+10 4.35299e+10 3.03558e+08 9.46182e+07 1.28827e+08 5.56198e+07 2.04121e+07 7.68826e+06 1.12959e+07 7.34808e+06 833288
threshold=0 1 2 3 4 5 6 7 8 9 10 11
decision_type=9 9 9 9 1 1 1 1 1 9 1 1
left_child=3 4 10 11 5 -2 -5 -6 -8 -10 -3 -1
right_child=1 2 -4 6 7 -7 8 -9 9 -11 -12 -13
leaf_value=-7.2166262128939129 -35.731145085633258 -37.405047799246653 801.71836062081263 -58.249623650410143 -37.201263312429568 -116.79456423107459 -29.33141919671904 -62.393116841236306 -30.70861103895199 -45.812822149786143 -65.17228272980573 -11.658276179724492
leaf_weight=287 121 165 227 539 622 137 499 169 405 766 235 828
leaf_count=287 121 165 227 539 622 137 499 169 405 766 235 828
internal_value=0.769696 65.8155 262.942 -32.1285 -53.3797 -81.5283 -42.9038 -43.2953 -37.6336 -40.8932 -54.91 -10.5893
internal_weight=5000 1676 627 3324 1049 258 2209 791 1670 1171 400 1115
internal_count=5000 1676 627 3324 1049 258 2209 791 1670 1171 400 1115
cat_boundaries=0 1 2 3 4 5 6 7 8 9 10 11 12
cat_threshold=282 36 128 8 1 11 1 28 9 2 17 4
is_linear=0
shrinkage=0.05


Tree=63
num_leaves=12
num_cat=11
split_feature=1 1 1 1 3 2 3 3 2 3 2
split_gain=4.35428e+09 6.21995e+09 1.10891e+10 9.8645e+08 8.57175e+08 2.0878e+08 8.4378e+07 3.40242e+07 1.33002e+07 746850 4.57215e+06
threshold=0 1 2 3 4 5 6 7 8 9 10
decision_type=9 9 9 9 1 1 1 1 1 1 1
left_child=3 7 9 -1 -4 -6 -5 -2 -9 10 -3
right_child=1 2 4 6 5 -7 -8 8 -10 -11 -12
leaf_value=-175.12681529938232 -60.153320265852898 -14.305149200439454 339.62159200801574 -74.307295094474625 150.77828950799508 241.76069677819453 -43.442140582182155 -24.219965581263395 -42.520967207261805 -11.082318335963606 -1.3826142971332258
leaf_weight=179 358 115 194 361 337 268 1088 232 868 828 172
leaf_count=179 358 115 194 361 337 268 1088 232 868 828 172
internal_value=0.757615 33.1622 92.2482 -66.1578 233.39 194.357 -51.5884 -44.5034 -38.9141 -10.0682 -6.86794
internal_weight=5000 3372 1914 1628 799 605 1449 1458 1100 1115 287
internal_count=5000 3372 1914 1628 799 605 1449 1458 1100 1115 287
cat_boundaries=0 1 2 3 4 5 6 7 8 9 10 11
cat_threshold=165 272 8 1 1 25 1 1 8 4 5
is_linear=0
shrinkage=0.05


Tree=64
num_leaves=14
num_cat=13
split_feature=1 1 1 1 3 2 3 2 2 2 3 2 2
split_gain=4.25147e+09 1.44607e+10 3.96187e+10 3.29171e+08 8.03619e+07 1.29947e+08 5.9973e+07 2.03802e+07 8.2009e+06 8.05448e+06 658340 4.16256e+06 292671
threshold=0 1 2 3 4 5 6 7 8 9 10 11 12
decision_type=9 9 9 9 1 1 1 1 1 1 1 1 1
left_child=3 4 8 10 5 -2 -5 12 -3 -8 11 -1 -6
right_child=1 2 -4 6 7 -7 9 -9 -10 -11 -12 -13 -14
leaf_value=-13.647111680603027 -30.485031330051712 -33.311484509059362 767.5661719599857 -59.027408960130487 -25.149973236642236 -109.65143583085802 -29.359500614364862 -57.396984079030645 -59.515994190877805 -41.054089583036358 -10.534815074862614 -1.3172810502104708 -37.414888917556922
leaf_weight=115 124 165 227 539 236 134 499 169 235 1171 828 172 386
leaf_count=115 124 165 227 539 236 134 499 169 235 1171 828 172 386
internal_value=0.748296 65.4509 253.536 -31.9762 -48.3022 -74.1597 -43.1883 -39.0478 -49.7828 -37.7553 -9.57672 -6.55096 -33.2329
internal_weight=5000 1676 627 3324 1049 258 2209 791 400 1670 1115 287 622
internal_count=5000 1676 627 3324 1049 258 2209 791 400 1670 1115 287 622
cat_boundaries=0 1 2 3 4 5 6 7 8 9 10 11 12 13
cat_threshold=282 36 128 8 1 7 1 28 17 9 4 5 4
is_linear=0
shrinkage=0.05


Tree=65
num_leaves=12
num_cat=11
split_feature=1 1 1 1 3 3 2 3 2 3 2
split_gain=4.20949e+09 5.95268e+09 1.09493e+10 1.60464e+09 6.2672e+08 7.08434e+07 4.49903e+07 3.517e+07 5.00128e+06 579979 3.78966e+06
threshold=0 1 2 3 4 5 6 7 8 9 10
decision_type=9 9 9 9 1 1 1 1 1 1 1
left_child=3 7 9 -1 -4 -5 -6 8 -2 10 -3
right_child=1 2 4 5 6 -7 -8 -9 -10 -11 -12
leaf_value=-203.1814850519574 -38.947559033533572 -13.019345494079591 331.46788207803456 -67.489239993442425 223.34310703655493 -39.273938557445895 141.87713860594309 -36.605372513986346 -68.254703793869368 -10.014359993663637 -1.255036816230187
leaf_weight=179 147 115 193 361 378 1088 198 1129 212 828 172
leaf_count=179 147 115 193 361 378 1088 198 1129 212 828 172
internal_value=0.736852 32.5981 91.4507 -65.0565 235.501 -46.7178 198.238 -42.0299 -57.635 -9.10922 -6.2486
internal_weight=5000 3372 1884 1628 769 1449 576 1488 359 1115 287
internal_count=5000 3372 1884 1628 769 1449 576 1488 359 1115 287
cat_boundaries=0 1 2 3 4 5 6 7 8 9 10 11
cat_threshold=165 18 8 1 1 1 14 1 5 4 5
is_linear=0
shrinkage=0.05


Tree=66
num_leaves=13
num_cat=12
split_feature=1 1 1 1 3 1 3 3 3 3 2 2
split_gain=4.75754e+09 6.33077e+09 1.90901e+10 1.42185e+09 5.48874e+08 1.64489e+08 4.52655e+07 8.11222e+06 7.64686e+06 510633 3.45017e+06 53650.8
threshold=0 1 2 3 4 5 6 7 8 9 10 11
decision_type=9 9 9 9 1 9 1 1 1 1 1 1
left_child=3 5 7 -1 -4 9 -5 -3 -7 10 -2 -11
right_child=1 2 4 6 -6 8 -8 -9 -10 11 -12 -13
leaf_value=-193.55992495017077 -12.420454973602297 -54.026294593349178 488.49796770166472 -37.427427383296752 295.50234965721768 -52.864492144483201 -56.697050623561339 -34.903056195522176 -34.065683573955816 -8.3406885802220199 -1.1957317949651363 -11.559675312042238
leaf_weight=179 115 181 125 837 410 178 846 570 559 557 172 271
leaf_count=179 115 181 125 837 410 178 846 570 559 557 172 271
internal_value=0.721874 38.2547 123.067 -62.402 348.731 -20.9826 -47.3914 -40.1614 -39.2529 -8.66455 -5.9602 -9.51962
internal_weight=5000 3138 1286 1862 535 1852 1683 751 737 1115 287 828
internal_count=5000 3138 1286 1862 535 1852 1683 751 737 1115 287 828
cat_boundaries=0 1 2 3 4 5 6 7 8 9 10 11 12
cat_threshold=389 24 2 1 1 8 10 1 1 4 5 22
is_linear=0
shrinkage=0.05


Tree=67
num_leaves=16
num_cat=15
split_feature=1 1 1 1 3 2 1 3 2 2 3 3 2 3 2
split_gain=4.80002e+09 5.70927e+09 1.55589e+10 1.18196e+09 4.90143e+08 3.96253e+08 1.48893e+08 1.27238e+08 5.46201e+07 2.0361e+07 7.5188e+06 7.09065e+06 2.07769e+06 493086 3.01536e+06
threshold=0 1 2 3 4 5 6 7 8 9 10 11 12 13 14
decision_type=9 9 9 9 1 1 9 1 1 1 1 1 1 1 1
left_child=3 6 10 -1 -4 -6 13 8 -5 -9 -3 -8 -11 14 -2
right_child=1 2 4 7 5 -7 11 9 -10 12 -12 -13 -14 -15 -16
leaf_value=-184.39399487732581 -3.9019317252295362 -51.466409598345535 410.11578223775837 -49.299035976447314 301.42622367846042 157.35614789368094 -50.361865449459003 -62.691316009617452 -98.675528553269487 -22.115648512234767 -33.187991958651047 -32.392334036667869 -39.564587829073815 -9.7078078367202565 -11.962756841207288
leaf_weight=179 382 181 159 194 287 164 178 149 201 116 570 559 948 549 184
leaf_count=179 382 181 159 194 287 164 178 149 201 116 570 559 948 549 184
internal_value=0.714474 37.2193 114.613 -64.7665 300.344 253.587 -19.9658 -50.3924 -76.2408 -41.4206 -38.2117 -37.3484 -37.8859 -8.24622 -6.6846
internal_weight=5000 3213 1361 1787 610 451 1852 1608 395 1213 751 737 1064 1115 566
internal_count=5000 3213 1361 1787 610 451 1852 1608 395 1213 751 737 1064 1115 566
cat_boundaries=0 1 2 3 4 5 6 7 8 9 10 11 12 13 14 15
cat_threshold=417 24 2 1 1 14 8 1 7 2 1 1 1 5 22
is_linear=0
shrinkage=0.05


Tree=68
num_leaves=15
num_cat=14
split_feature=1 1 1 1 3 1 3 1 3 3 2 3 3 2
split_gain=5.46166e+09 7.08969e+09 2.37893e+10 1.00631e+09 1.5195e+08 1.34805e+08 1.2213e+08 1.97372e+07 6.96584e+06 6.57202e+06 1.44699e+07 4.40516e+06 440271 2.74056e+06
threshold=0 1 2 3 4 5 6 7 8 9 10 11 12 13
decision_type=9 9 9 9 1 9 1 9 1 1 1 1 1 1
left_child=3 5 8 -1 -4 12 7 -5 -3 -7 -11 -8 13 -2
right_child=1 2 4 6 -6 9 11 -9 -10 10 -12 -13 -14 -15
leaf_value=-175.66211150840479 -3.7118115732864463 -49.027818881529164 563.10375329880492 -63.415663459187471 356.5368183396713 -47.977712925444258 -39.230498703850643 -106.57306208219684 -31.557202808507562 -20.356247089703878 -39.878713594164168 -52.051009654629553 -9.2311003420988431 -11.395451179976316
leaf_weight=179 382 181 116 326 332 178 890 112 570 275 284 442 549 184
leaf_count=179 382 181 116 326 332 178 890 112 570 275 284 442 549 184
internal_value=0.700668 42.42 136.658 -64.4942 421.15 -18.9966 -52.3281 -76.5839 -36.3568 -35.5364 -30.8012 -43.8409 -7.84527 -6.36415
internal_weight=5000 3051 1199 1949 448 1852 1770 438 751 737 559 1332 1115 566
internal_count=5000 3051 1199 1949 448 1852 1770 438 751 737 559 1332 1115 566
cat_boundaries=0 1 2 3 4 5 6 7 8 9 10 11 12 13 14
cat_threshold=293 24 2 1 1 8 1 260 1 1 24 10 5 22
is_linear=0
shrinkage=0.05


Tree=69
num_leaves=14
num_cat=13
split_feature=1 1 1 1 3 2 3 3 2 2 3 2 2
split_gain=4.79431e+09 5.66016e+09 1.04821e+10 7.85528e+08 7.81369e+08 2.10719e+08 9.51409e+07 2.94076e+07 7.95787e+06 4.08334e+06 423841 3.27084e+06 74934.1
threshold=0 1 2 3 4 5 6 7 8 9 10 11 12
decision_type=9 9 9 9 1 1 1 1 1 1 1 1 1
left_child=3 7 10 -1 -4 -6 -5 8 -2 -9 11 -3 -12
right_child=1 2 4 6 5 -7 -8 9 -10 -11 12 -13 -14
leaf_value=-167.34372048756435 -37.526986378649767 -11.328842331695558 333.7191475735375 -80.632566379858162 150.11748611947294 241.9928792432807 -47.663602141984398 -25.152651304307255 -65.803430419532887 -36.958901452024939 -6.8904756959762086 -0.49830917526077445 -9.595603773821848
leaf_weight=179 181 115 191 361 343 251 1088 327 180 784 451 172 377
leaf_count=179 181 115 191 361 343 251 1088 327 180 784 451 172 377
internal_value=0.692592 34.6955 91.5353 -69.5221 230.477 192.304 -56.3738 -38.7936 -53.0197 -33.7393 -7.46383 -5.07339 -8.22197
internal_weight=5000 3372 1900 1628 785 594 1449 1472 361 1111 1115 287 828
internal_count=5000 3372 1900 1628 785 594 1449 1472 361 1111 1115 287 828
cat_boundaries=0 1 2 3 4 5 6 7 8 9 10 11 12 13
cat_threshold=165 258 8 1 1 25 1 1 12 9 4 5 20
is_linear=0
shrinkage=0.05


Tree=70
num_leaves=13
num_cat=12
split_feature=1 1 1 3 1 2 3 3 2 3 2 2
split_gain=4.34164e+09 5.98132e+09 1.01842e+10 7.86634e+08 7.14481e+08 1.65617e+08 8.6432e+07 3.86355e+07 1.43865e+07 384907 2.51689e+06 47134.2
threshold=0 1 2 3 4 5 6 7 8 9 10 11
decision_type=9 9 9 1 9 1 1 1 1 1 1 1
left_child=4 7 9 -4 -1 -5 -6 -2 -9 10 -3 -11
right_child=1 2 3 5 6 -7 -8 8 -10 11 -12 -13
leaf_value=-159.41924311704736 -59.356997483709591 -10.54034034984628 328.40906858444214 147.6718319035401 -76.709608590056632 233.09537420047701 -45.302126492369915 -30.38560900988081 -45.616030779822928 -5.2404032641694753 -3.2212562342231372 -9.1257319071997784
leaf_weight=179 358 184 194 337 361 268 1088 622 478 121 382 428
leaf_count=179 358 184 194 337 361 268 1088 622 478 121 382 428
internal_value=0.681606 33.0394 90.9808 226.252 -66.1363 188.687 -53.599 -43.1251 -37.3553 -7.10322 -5.74229 -8.37847
internal_weight=5000 3372 1914 799 1628 605 1449 1458 1100 1115 566 549
internal_count=5000 3372 1914 799 1628 605 1449 1458 1100 1115 566 549
cat_boundaries=0 1 2 3 4 5 6 7 8 9 10 11 12
cat_threshold=165 272 8 1 1 25 1 1 25 5 9 3
is_linear=0
shrinkage=0.05


Tree=71
num_leaves=13
num_cat=12
split_feature=1 1 1 1 2 3 3 3 2 3 2 2
split_gain=3.9322e+09 6.00331e+09 1.02523e+10 6.49855e+08 6.13501e+08 6.88741e+08 7.85193e+07 4.61018e+07 7.01167e+06 364585 3.03173e+06 101195
threshold=0 1 2 3 4 5 6 7 8 9 10 11
decision_type=9 9 9 9 1 1 1 1 1 1 1 1
left_child=3 7 9 -1 -4 -6 -5 -2 -9 10 -3 -11
right_child=1 2 4 6 5 -7 -8 8 -10 11 -12 -13
leaf_value=-151.87002233020846 -60.880009255241248 -10.580491475582123 319.81136947946811 -72.977511555807936 76.615211307272617 226.18828436487831 -43.057649392964407 -44.359837119747894 -31.641301941470637 -6.2056580570928448 -0.19185143355484849 -8.7528239039487623
leaf_weight=179 359 115 208 361 137 424 1088 485 644 451 172 377
leaf_count=179 359 115 208 361 137 424 1088 485 644 451 172 377
internal_value=0.673951 31.4681 90.571 -62.9154 229.971 191.643 -50.9609 -43.4688 -37.4465 -6.76056 -4.57063 -7.45603
internal_weight=5000 3372 1884 1628 769 561 1449 1488 1129 1115 287 828
internal_count=5000 3372 1884 1628 769 561 1449 1488 1129 1115 287 828
cat_boundaries=0 1 2 3 4 5 6 7 8 9 10 11 12
cat_threshold=165 18 8 1 16 2 1 1 6 4 5 20
is_linear=0
shrinkage=0.05


Tree=72
num_leaves=17
num_cat=16
split_feature=1 1 1 1 3 1 3 2 2 3 3 2 2 3 2 2
split_gain=4.33207e+09 5.796e+09 1.81405e+10 5.84796e+08 5.29854e+08 2.0724e+08 4.16435e+07 9.86322e+07 1.38014e+07 1.23884e+07 1.13525e+07 1.60597e+07 7.04414e+06 338612 2.30844e+06 173329
threshold=0 1 2 3 4 5 6 7 8 9 10 11 12 13 14 15
decision_type=9 9 9 9 1 9 1 1 1 1 1 1 1 1 1 1
left_child=3 5 9 -1 -4 13 8 -8 -5 -3 -7 -12 -6 14 -2 -15
right_child=1 2 4 6 12 10 7 -9 -10 -11 11 -13 -14 15 -16 -17
leaf_value=-144.67829143281969 -9.7561068269395346 -56.958784633906106 473.66569494459367 -28.545203640749321 318.41290660323853 -55.812763182914004 -32.93608230227516 -72.638447807488561 -46.536500247196805 -35.633082891990398 -23.624131216919213 -44.751324265343804 181.23869609677695 -5.1047020548865909 -2.784183749860647 -8.6561580508006255
leaf_weight=179 184 181 125 329 297 178 305 541 508 570 275 284 113 179 382 370
leaf_count=179 184 181 125 329 297 178 305 541 508 570 275 284 113 179 382 370
internal_value=0.659463 36.4749 117.626 -59.5756 337.596 -20.2045 -49.7232 -58.8769 -39.8852 -41.4538 -40.6728 -34.9557 285.822 -6.43397 -5.1807 -7.61025
internal_weight=5000 3138 1286 1862 535 1852 1683 846 837 751 737 559 410 1115 566 549
internal_count=5000 3138 1286 1862 535 1852 1683 846 837 751 737 559 410 1115 566 549
cat_boundaries=0 1 2 3 4 5 6 7 8 9 10 11 12 13 14 15 16
cat_threshold=389 24 2 1 1 8 10 10 5 1 1 24 22 5 9 9
is_linear=0
shrinkage=0.05


Tree=73
num_leaves=16
num_cat=15
split_feature=1 1 1 3 1 2 3 2 2 3 2 2 3 2 2
split_gain=4.43811e+09 5.32321e+09 9.69658e+09 7.22057e+08 4.55021e+08 1.95167e+08 1.20617e+08 4.23027e+07 1.64341e+07 2.54043e+07 1.34322e+07 1.8753e+06 313218 2.80688e+06 127896
threshold=0 1 2 3 4 5 6 7 8 9 10 11 12 13 14
decision_type=9 9 9 1 9 1 1 1 1 1 1 1 1 1 1
left_child=4 8 12 -4 -1 -5 7 -6 -2 -10 -8 -12 13 -3 -14
right_child=1 2 3 5 6 -7 10 -9 9 -11 11 -13 14 -15 -16
leaf_value=-137.82712460876141 -26.821985462069097 -9.890419396972657 322.17031941959516 145.24961645650458 -52.737871053172093 233.92089409791649 -63.829916733315912 -99.742998814159094 -34.77274380777822 -54.645514920579664 -24.176236504600162 -42.69186600290535 -5.5767647598156964 0.073273755167866814 -7.9989611254798039
leaf_weight=179 277 115 191 343 194 251 149 201 518 518 116 948 451 172 377
leaf_count=179 277 115 191 343 194 251 149 201 518 518 116 948 451 172 377
internal_value=0.666981 35.7687 89.1064 222.746 -62.2969 185.971 -53.0892 -78.5291 -41.5047 -45.1366 -44.2306 -40.9171 -6.12396 -4.11773 -6.76192
internal_weight=5000 3213 1900 785 1787 594 1608 395 1313 1036 1213 1064 1115 287 828
internal_count=5000 3213 1900 785 1787 594 1608 395 1313 1036 1213 1064 1115 287 828
cat_boundaries=0 1 2 3 4 5 6 7 8 9 10 11 12 13 14 15
cat_threshold=417 6 8 1 1 25 1 7 8 10 2 1 4 5 20
is_linear=0
shrinkage=0.05


Tree=74
num_leaves=18
num_cat=17
split_feature=1 1 1 2 3 3 1 3 2 2 3 3 2 3 3 2 2
split_gain=4.32789e+09 5.39929e+09 9.43519e+09 8.09518e+08 4.27079e+09 6.45136e+08 3.89761e+08 1.44899e+08 9.5087e+07 4.94385e+07 9.27214e+07 4.89027e+07 2.04601e+07 1.21478e+07 297623 2.11451e+06 195075
threshold=0 1 2 3 4 5 6 7 8 9 10 11 12 13 14 15 16
decision_type=9 9 9 1 1 1 9 1 1 1 1 1 1 1 1 1 1
left_child=6 9 14 4 -4 -5 -1 8 -8 13 -11 -7 -9 -2 15 -3 -16
right_child=1 2 3 5 -6 11 7 12 -10 10 -12 -13 -14 -15 16 -17 -18
leaf_value=-131.30039119417705 -9.8118877807697231 -9.0361822044726505 543.97747632094786 233.38718551712986 79.355070636718267 141.35922727333875 -50.269798621521694 -32.146079805195022 -109.96737898846264 -32.764865715856061 -66.085771100341432 70.346387016350491 -49.461589719813311 -32.836338629467143 -5.0676903335647729 -2.3952983617782593 -8.2637329804004214
leaf_weight=179 133 184 102 311 113 142 209 467 184 511 481 131 764 158 252 382 297
leaf_count=179 133 184 102 311 113 142 209 467 184 511 481 131 764 158 252 382 297
internal_value=0.647702 35.5516 88.5926 218.8 314.161 178.994 -61.1007 -52.6069 -80.255 -43.649 -49.4198 110.973 -43.2046 -22.9887 -5.82816 -4.67357 -6.9136
internal_weight=5000 3197 1914 799 215 584 1803 1624 393 1283 992 273 1231 291 1115 566 549
internal_count=5000 3197 1914 799 215 584 1803 1624 393 1283 992 273 1231 291 1115 566 549
cat_boundaries=0 1 2 3 4 5 6 7 8 9 10 11 12 13 14 15 16 17
cat_threshold=177 260 8 16 3 12 1 1 7 8 10 1 17 6 5 9 11
is_linear=0
shrinkage=0.05


Tree=75
num_leaves=20
num_cat=19
split_feature=1 1 1 1 1 3 3 2 2 2 3 3 2 2 3 3 3 3 3
split_gain=5.03036e+09 6.11847e+09 2.25946e+10 3.62777e+08 1.71903e+08 1.70979e+08 1.50576e+08 1.40617e+08 2.79274e+07 2.50882e+07 2.50228e+07 1.77262e+07 1.10077e+07 294073 4.90257e+06 4.436e+06 1.00683e+06 745604 125502
threshold=0 1 2 3 4 5 6 7 8 9 10 11 12 13 14 15 16 17 18
decision_type=9 9 9 9 9 1 1 1 1 1 1 1 1 1 1 1 1 1 1
left_child=3 4 10 -1 13 7 -4 -5 -6 -7 -3 -10 -12 15 17 -2 18 -15 -17
right_child=1 2 6 5 8 9 -8 -9 11 -11 12 -13 -14 14 -16 16 -18 -19 -20
leaf_value=-125.08272703968028 -11.570428854732191 -22.270593011946907 544.19749482775489 -47.540224097887936 -15.794586261113487 -60.765969250989308 344.12396670649628 -109.76610601356438 -31.572515064373352 -37.637105570691624 -34.795712497370026 -59.485789846073502 -58.096005000042013 1.4512973466515542 -12.329594277011024 0.3015824684729943 -5.3178527999710248 -4.2174163659413662 -1.5592840002469368
leaf_weight=179 167 179 116 259 134 199 332 212 218 1305 236 210 306 110 206 172 172 107 181
leaf_count=179 167 179 116 259 134 199 332 212 218 1305 236 210 306 110 206 172 172 107 181
internal_value=0.668218 44.2335 131.579 -56.8345 -17.0723 -50.05 406.68 -77.2482 -39.4403 -41.0785 -42.5817 -46.3137 -48.7646 -5.54776 -6.88793 -4.64209 -2.26315 -1.40653 -0.669243
internal_weight=5000 2846 1169 2154 1677 1975 448 471 562 1504 721 428 542 1115 423 692 525 217 353
internal_count=5000 2846 1169 2154 1677 1975 448 471 562 1504 721 428 542 1115 423 692 525 217 353
cat_boundaries=0 1 2 3 4 5 6 7 8 9 10 11 12 13 14 15 16 17 18 19
cat_threshold=51 12 256 1 8 1 1 7 8 2 2 10 11 26 9 8 6 8 4
is_linear=0
shrinkage=0.05


Tree=76
num_leaves=16
num_cat=15
split_feature=1 1 1 3 2 1 3 2 3 1 2 2 3 2 2
split_gain=4.28493e+09 6.62808e+09 1.42563e+10 4.38347e+08 2.86292e+08 2.64911e+08 1.33596e+08 7.15178e+07 3.23901e+07 1.87704e+07 2.25106e+07 1.36199e+07 274237 2.32183e+06 166326
threshold=0 1 2 3 4 5 6 7 8 9 10 11 12 13 14
decision_type=9 9 9 1 1 9 1 1 1 9 1 1 1 1 1
left_child=5 8 12 -4 -5 -1 7 -7 -2 10 -8 -10 13 -3 -14
right_child=1 2 3 4 -6 6 9 -9 11 -11 -12 -13 14 -15 -16
leaf_value=-119.15950143066034 -57.963722449800244 2.4487176675712115 400.15862899503765 292.9951021155926 159.47974692651596 -54.427917820592477 -31.989037041611727 -109.26888001724329 -25.83742026783699 -58.458604585930267 -52.037753013866705 -41.957818718577172 -4.7477617970257677 -6.7536606228228697 -7.0376260361930196
leaf_weight=179 358 103 159 287 164 227 627 169 334 297 318 766 451 184 377
leaf_count=179 358 103 159 287 164 227 627 169 334 297 318 766 451 184 377
internal_value=0.660034 35.6004 101.7 294.187 248.957 -60.4115 -53.3075 -79.9472 -42.7643 -44.243 -39.2098 -37.3399 -5.28514 -3.47982 -5.86191
internal_weight=5000 3183 1725 610 451 1817 1638 396 1458 1242 945 1100 1115 287 828
internal_count=5000 3183 1725 610 451 1817 1638 396 1458 1242 945 1100 1115 287 828
cat_boundaries=0 1 2 3 4 5 6 7 8 9 10 11 12 13 14 15
cat_threshold=163 272 8 1 14 1 1 7 1 34 21 9 4 10 20
is_linear=0
shrinkage=0.05


Tree=77
num_leaves=17
num_cat=16
split_feature=1 1 1 3 3 1 2 3 2 2 2 3 3 3 3 3
split_gain=3.85125e+09 5.84557e+09 9.65664e+09 5.84481e+08 2.28355e+08 8.45009e+07 6.68272e+07 3.70046e+07 6.6393e+06 2.50438e+06 271888 4.43287e+06 3.97812e+06 873587 685773 87483.5
threshold=0 1 2 3 4 5 6 7 8 9 10 11 12 13 14 15
decision_type=9 9 9 1 1 9 1 1 1 1 1 1 1 1 1 1
left_child=4 7 10 -4 -1 -6 -5 9 -9 -2 12 14 -3 15 -12 -14
right_child=1 2 3 6 5 -7 -8 8 -10 -11 11 -13 13 -15 -16 -17
leaf_value=-42.205451721110983 -40.46379463964967 -10.733343862242323 316.99402666937544 213.94397752383321 -64.223419590502743 -105.91579250590678 133.26558642507746 -31.532652060664759 -44.081984383481924 -69.105508066405051 1.6271921674410503 -11.450198459625245 0.3460628467601734 -4.7749137297108932 -3.7898569367889667 -1.2004981613908141
leaf_weight=820 147 167 193 378 487 321 198 644 485 212 110 206 172 172 107 181
leaf_count=820 147 167 193 378 487 321 198 644 485 212 110 206 172 172 107 181
internal_value=0.655577 31.1312 89.4524 224.749 -62.2758 -81.8792 188.958 -42.8152 -37.2633 -58.792 -5.02804 -6.28497 -4.18112 -1.93523 -1.09317 -0.458159
internal_weight=5000 3372 1884 769 1628 808 576 1488 1129 359 1115 423 692 525 217 353
internal_count=5000 3372 1884 769 1628 808 576 1488 1129 359 1115 423 692 525 217 353
cat_boundaries=0 1 2 3 4 5 6 7 8 9 10 11 12 13 14 15 16
cat_threshold=165 18 8 1 10 132 14 1 25 5 26 9 8 6 8 4
is_linear=0
shrinkage=0.05


Tree=78
num_leaves=15
num_cat=14
split_feature=1 1 1 3 1 1 3 3 2 3 3 2 2 2
split_gain=4.13351e+09 5.39009e+09 1.71339e+10 4.97974e+08 2.22526e+08 2.02223e+08 3.68102e+07 1.1835e+07 1.93524e+07 5.12612e+06 262539 3.40821e+06 328023 34927
threshold=0 1 2 3 4 5 6 7 8 9 10 11 12 13
decision_type=9 9 9 1 9 9 1 1 1 1 1 1 1 1
left_child=5 4 9 -4 10 -1 -7 -6 -9 -3 11 13 -12 -2
right_child=1 2 3 -5 7 6 -8 8 -10 -11 12 -13 -14 -15
leaf_value=-110.11920945505618 -1.2657617162321217 -53.633156410936287 459.67668089124891 277.43562348229545 -55.42754705408786 -42.430650724852384 -60.962698654630266 -22.554122164040283 -44.887293253301763 -35.747944274359739 -3.9056242515112611 -11.113332642851368 -7.1439763323880179 -2.4539425817912059
leaf_weight=179 311 181 125 410 178 837 846 275 284 570 252 116 297 139
leaf_count=179 311 181 125 410 178 837 846 275 284 570 252 116 297 139
internal_value=0.646468 35.6314 113.89 327.668 -19.03 -58.192 -52.0513 -40.2211 -34.49 -40.7066 -4.78996 -3.77123 -5.75398 -1.67815
internal_weight=5000 3138 1286 535 1852 1862 1683 737 559 751 1115 566 549 450
internal_count=5000 3138 1286 535 1852 1862 1683 737 559 751 1115 566 549 450
cat_boundaries=0 1 2 3 4 5 6 7 8 9 10 11 12 13 14
cat_threshold=389 24 2 1 8 1 10 1 24 1 5 28 11 20
is_linear=0
shrinkage=0.05


Tree=79
num_leaves=23
num_cat=22
split_feature=1 1 1 2 3 3 3 1 3 2 2 1 1 1 3 2 2 3 3 3 3 3
split_gain=4.19972e+09 5.30263e+09 9.16203e+09 7.20342e+08 2.41099e+09 2.97395e+08 2.37319e+08 1.50583e+08 4.03207e+07 2.74719e+08 2.13635e+08 2.06241e+08 1.24009e+08 8.78341e+07 1.02962e+07 8.32025e+06 259356 4.0348e+06 3.59907e+06 819955 667263 73068.8
threshold=0 1 2 3 4 5 6 7 8 9 10 11 12 13 14 15 16 17 18 19 20 21
decision_type=9 9 9 1 1 1 1 9 1 1 1 9 9 9 1 1 1 1 1 1 1 1
left_child=6 14 16 4 -4 -5 7 -1 10 -10 12 -11 -8 -12 15 -2 18 20 -3 21 -18 -20
right_child=1 2 3 5 -6 -7 8 -9 9 11 13 -13 -14 -15 -16 -17 17 -19 19 -21 -22 -23
leaf_value=-65.354651310500842 -30.782857895726746 -9.9851164652129363 469.26119612731941 219.37102626797548 106.43051640247478 121.78872708482564 37.356328397092568 -137.23459270227522 -4.6072820242349204 -145.77599577636718 -89.864547550037344 -51.088471073465257 -29.293682096043575 -43.403875356744535 -38.057638609259719 -62.738692015203938 1.8449625233809155 -10.674956164536653 0.51354308914352254 -4.3760410683495659 -3.4829296319912646 -0.88989210003957708
leaf_weight=283 105 167 115 309 106 255 103 158 144 115 176 184 173 451 986 222 110 206 172 172 107 181
leaf_count=283 105 167 115 309 106 255 103 158 144 115 176 184 173 451 986 222 110 206 172 172 107 181
internal_value=0.642692 34.7887 88.0234 217.933 307.375 178.142 -60.6068 -93.5794 -49.1933 -63.6704 -41.4715 -91.0458 -3.98419 -57.6515 -42.3287 -53.6956 -4.56196 -5.75496 -3.76112 -1.63167 -0.819856 -0.210756
internal_weight=5000 3213 1900 785 221 564 1787 441 1346 443 903 299 276 627 1313 327 1115 423 692 525 217 353
internal_count=5000 3213 1900 785 221 564 1787 441 1346 443 903 299 276 627 1313 327 1115 423 692 525 217 353
cat_boundaries=0 1 2 3 4 5 6 7 8 9 10 11 12 13 14 15 16 17 18 19 20 21 22
cat_threshold=417 6 8 16 3 12 1 384 10 17 4 33 33 32 1 10 26 9 8 6 8 4
is_linear=0
shrinkage=0.05


Tree=80
num_leaves=17
num_cat=16
split_feature=1 1 1 3 3 2 1 2 3 1 3 2 2 3 3 3
split_gain=4.07244e+09 5.40662e+09 8.93782e+09 7.33553e+08 2.23278e+08 1.609e+08 1.14374e+08 2.8423e+07 8.51282e+07 2.2641e+07 1.19324e+07 8.658e+06 320296 1.16368e+06 190975 42775.3
threshold=0 1 2 3 4 5 6 7 8 9 10 11 12 13 14 15
decision_type=9 9 9 1 1 1 9 1 1 9 1 1 1 1 1 1
left_child=4 7 12 -4 6 -5 -1 10 -9 -6 -2 -11 13 14 -3 -14
right_child=1 2 3 5 9 -7 -8 8 -10 11 -12 -13 15 -15 -16 -17
leaf_value=-65.553283041559439 -13.632205246878669 -0.38794131112929009 312.34504665755759 138.96476922351277 -73.429093216682645 220.98068895814873 -130.78129843643734 -33.370740152274806 -65.551501823588453 -35.699839132311958 -37.779292043333967 -50.220537760938477 -4.2398375010726479 -5.6536103780003266 -2.6646683248501382 -7.0418090643706153
leaf_weight=281 133 191 194 337 133 268 158 511 481 467 158 764 192 357 196 179
leaf_count=281 133 191 194 337 133 268 158 511 481 467 158 764 192 357 196 179
internal_value=0.633452 34.4916 87.569 214.304 -59.2648 178.298 -91.4193 -44.755 -49.473 -48.326 -27.5625 -45.0439 -4.34589 -3.58325 -1.57909 -5.74107
internal_weight=5000 3197 1914 799 1803 605 439 1283 992 1364 291 1231 1115 744 387 371
internal_count=5000 3197 1914 799 1803 605 439 1283 992 1364 291 1231 1115 744 387 371
cat_boundaries=0 1 2 3 4 5 6 7 8 9 10 11 12 13 14 15 16
cat_threshold=177 260 8 1 1 25 144 8 10 1 6 17 14 5 4 10
is_linear=0
shrinkage=0.05


Tree=81
num_leaves=21
num_cat=20
split_feature=1 1 1 3 2 3 1 2 3 1 3 1 3 2 2 3 3 3 3 3
split_gain=3.7741e+09 6.55044e+09 1.32772e+10 3.82312e+08 2.2284e+08 2.16743e+08 9.3078e+07 3.60946e+07 2.15604e+08 1.24794e+08 7.80228e+07 5.18741e+07 2.97124e+07 9.34593e+06 258995 3.71184e+06 3.24752e+06 746565 631317 57649.1
threshold=0 1 2 3 4 5 6 7 8 9 10 11 12 13 14 15 16 17 18 19
decision_type=9 9 9 1 1 1 9 1 1 9 1 9 1 1 1 1 1 1 1 1
left_child=5 12 14 -4 -5 6 -1 10 -9 -10 11 -7 -2 -14 16 18 -3 19 -16 -18
right_child=1 2 3 4 -6 7 -8 8 9 -11 -12 -13 13 -15 15 -17 17 -19 -20 -21
leaf_value=-64.363816395584422 -59.426249197773316 -9.2725171528293586 386.04316322732961 282.81551372707895 157.41914580772664 7.8110269170818913 -124.63146555210864 -5.080819393837289 -128.79371480160074 -51.783965074897992 -50.154680866473598 -32.669147019280324 -28.35185465162057 -43.402377715461036 2.0042100775241853 -10.002112811583061 0.63374008975186191 -3.9651862099930484 -3.1681518448723689 -0.60982498560900467
leaf_weight=284 358 167 159 287 164 122 158 136 112 192 598 215 334 766 110 206 172 172 107 181
leaf_count=284 358 167 159 287 164 122 158 136 112 192 598 215 334 766 110 206 172 172 107 181
internal_value=0.616408 33.408 99.1203 284.885 241.621 -56.6993 -88.1882 -46.0134 -59.8111 -83.3541 -38.9561 -18.2118 -44.4837 -39.1291 -4.13748 -5.29013 -3.36757 -1.35103 -0.57343 -0.00312913
internal_weight=5000 3183 1725 610 451 1817 442 1375 440 304 935 337 1458 1100 1115 423 692 525 217 353
internal_count=5000 3183 1725 610 451 1817 442 1375 440 304 935 337 1458 1100 1115 423 692 525 217 353
cat_boundaries=0 1 2 3 4 5 6 7 8 9 10 11 12 13 14 15 16 17 18 19 20
cat_threshold=163 272 8 1 14 1 130 21 2 33 8 33 1 9 26 9 8 6 8 4
is_linear=0
shrinkage=0.05


Tree=82
num_leaves=14
num_cat=13
split_feature=1 1 1 1 3 3 2 2 2 2 3 3 3
split_gain=3.75362e+09 9.73981e+09 4.53002e+10 4.55017e+08 8.37481e+07 5.75621e+07 2.0247e+07 8.99031e+06 1.97722e+06 316353 1.05164e+06 183115 65824.6
threshold=0 1 2 3 4 5 6 7 8 9 10 11 12
decision_type=9 9 9 9 1 1 1 1 1 1 1 1 1
left_child=3 4 -3 9 -2 8 -6 -7 -5 10 11 -1 -11
right_child=1 2 -4 5 6 7 -8 -9 -10 12 -12 -13 -14
leaf_value=-0.16679545729907591 -81.341042608896899 -55.719291679842492 768.94330623240421 -46.021141212239812 -33.721186495931526 -29.323165961707744 -57.700066665790054 -41.327881947611473 -69.083368505464577 -3.8399484340802275 -5.1678539855603631 -2.3664855568154346 -6.5652004892863935
leaf_weight=191 215 562 227 263 465 499 207 1171 276 192 357 196 179
leaf_count=191 215 562 227 263 465 499 207 1171 276 192 357 196 179
internal_value=0.607693 61.4045 188.195 -30.1408 -52.2187 -43.2877 -41.8453 -37.9367 -58.8736 -3.94144 -3.2064 -1.3124 -5.29263
internal_weight=5000 1676 789 3324 887 2209 672 1670 539 1115 744 387 371
internal_count=5000 1676 789 3324 887 2209 672 1670 539 1115 744 387 371
cat_boundaries=0 1 2 3 4 5 6 7 8 9 10 11 12 13
cat_threshold=282 160 4 8 1 1 21 9 12 14 5 4 10
is_linear=0
shrinkage=0.05


Tree=83
num_leaves=17
num_cat=16
split_feature=1 1 1 2 3 1 3 3 2 2 2 3 3 3 3 3
split_gain=3.66917e+09 5.66348e+09 9.05739e+09 5.57198e+08 5.79559e+08 3.93268e+08 8.24354e+07 3.27214e+07 6.4822e+06 5.92718e+06 255402 3.4136e+06 2.92994e+06 678298 595559 44628.7
threshold=0 1 2 3 4 5 6 7 8 9 10 11 12 13 14 15
decision_type=9 9 9 1 1 9 1 1 1 1 1 1 1 1 1 1
left_child=5 7 10 -4 -5 -1 -7 8 -2 -9 12 14 -3 15 -12 -14
right_child=1 2 3 4 -6 6 -8 9 -10 -11 11 -13 13 -15 -16 -17
leaf_value=-130.81515800839381 -38.577846262561287 -8.6149234917204254 304.36389663853777 75.523288808550149 214.26718420398674 -73.814036452818442 -43.265299485745977 -31.508175132526169 -68.58003552754721 -43.771105923213142 2.1348238305250802 -9.3786327150132927 0.73296344463641827 -3.5910190917633393 -2.8827749496851212 -0.36422302335968815
leaf_weight=179 147 167 208 137 424 361 1088 644 212 485 110 206 172 172 107 181
leaf_count=179 147 167 208 137 424 361 1088 644 212 485 110 206 172 172 107 181
internal_value=0.610968 30.3575 87.7633 218.8 182.301 -60.8146 -51.3299 -42.4263 -57.6734 -37.1142 -3.75241 -4.8658 -3.01221 -1.1023 -0.357294 0.175848
internal_weight=5000 3372 1884 769 561 1628 1449 1488 359 1129 1115 423 692 525 217 353
internal_count=5000 3372 1884 769 561 1628 1449 1488 359 1129 1115 423 692 525 217 353
cat_boundaries=0 1 2 3 4 5 6 7 8 9 10 11 12 13 14 15 16
cat_threshold=165 18 8 16 2 1 1 1 5 25 26 9 8 6 8 4
is_linear=0
shrinkage=0.05


Tree=84
num_leaves=16
num_cat=15
split_feature=1 1 1 1 1 3 3 2 3 2 3 2 3 3 3
split_gain=4.28651e+09 5.82008e+09 2.12512e+10 3.57698e+08 2.31728e+08 1.57246e+08 9.68474e+07 1.09923e+08 9.86879e+06 7.10606e+06 3.68591e+06 309495 951051 174687 82742.2
threshold=0 1 2 3 4 5 6 7 8 9 10 11 12 13 14
decision_type=9 9 9 9 9 1 1 1 1 1 1 1 1 1 1
left_child=3 4 8 -1 11 -4 7 -5 -3 -8 -6 12 13 -2 -13
right_child=1 2 5 6 10 -7 9 -9 -10 -11 -12 14 -14 -15 -16
leaf_value=-124.62047190212068 0.027652418791358154 -55.008026367956433 525.17943412235809 -113.6185490689416 -51.93862528598055 331.19989101527727 -57.605725277911176 -51.083186606615783 -35.009543641106838 -39.24534338217515 -34.958693353321102 -3.4784796592032556 -4.725742440847351 -2.0983699168973757 -6.1252206176677078
leaf_weight=179 191 181 116 128 178 332 172 310 570 1160 559 192 357 196 179
leaf_count=179 191 181 116 128 178 332 172 310 570 1160 559 192 357 196 179
internal_value=0.594606 37.5543 122.937 -57.1621 -18.0866 391.797 -49.6782 -71.4866 -40.4889 -42.0278 -39.7001 -3.57455 -2.86612 -1.07483 -4.88273
internal_weight=5000 3051 1199 1949 1852 448 1770 438 751 1332 737 1115 744 387 371
internal_count=5000 3051 1199 1949 1852 448 1770 438 751 1332 737 1115 744 387 371
cat_boundaries=0 1 2 3 4 5 6 7 8 9 10 11 12 13 14 15
cat_threshold=293 24 2 1 8 1 1 16 1 2 1 14 5 4 10
is_linear=0
shrinkage=0.05


Tree=85
num_leaves=18
num_cat=17
split_feature=1 1 1 3 1 2 3 3 1 2 2 2 3 3 3 3 3
split_gain=3.60306e+09 5.52657e+09 8.58585e+09 7.162e+08 2.66253e+08 2.01607e+08 8.49958e+07 2.68901e+07 1.59359e+07 1.08548e+07 3.82264e+06 249382 3.13844e+06 2.64312e+06 615070 560410 33713.6
threshold=0 1 2 3 4 5 6 7 8 9 10 11 12 13 14 15 16
decision_type=9 9 9 1 9 1 1 1 9 1 1 1 1 1 1 1 1
left_child=4 7 11 -4 -1 -5 -6 9 -8 -2 -9 13 15 -3 16 -13 -15
right_child=1 2 3 5 6 -7 8 10 -10 -11 -12 12 -14 14 -16 -17 -18
leaf_value=-118.71913149293769 -43.069855704550015 -8.0077733881161208 309.56466161765866 136.3675638096191 -75.138448956584668 222.91084479394999 -32.14807278125317 -19.636026477813722 -49.851444636922167 -74.986391301648368 -39.017308970364361 2.2400630680720011 -8.800495674875048 0.81365653656341219 -3.2502722079937274 -2.624026888659877 -0.14949613453830099
leaf_weight=179 226 167 191 343 361 251 375 101 713 135 1010 110 206 172 172 107 181
leaf_count=179 226 167 191 343 361 251 375 101 713 135 1010 110 206 172 172 107 181
internal_value=0.592565 30.07 86.2364 212 -60.2771 176.022 -52.2933 -42.5201 -44.098 -56.7049 -37.4463 -3.40311 -4.47832 -2.69144 -0.882276 -0.168298 0.329289
internal_weight=5000 3372 1900 785 1628 594 1449 1472 1088 361 1111 1115 423 692 525 217 353
internal_count=5000 3372 1900 785 1628 594 1449 1472 1088 361 1111 1115 423 692 525 217 353
cat_boundaries=0 1 2 3 4 5 6 7 8 9 10 11 12 13 14 15 16 17
cat_threshold=165 258 8 1 1 25 1 1 32 14 1 26 9 8 6 8 4
is_linear=0
shrinkage=0.05


Tree=86
num_leaves=18
num_cat=17
split_feature=1 1 1 2 3 3 1 3 2 3 3 2 2 2 3 3 3
split_gain=4.02874e+09 5.03856e+09 8.36159e+09 7.17577e+08 3.66325e+09 5.06944e+08 2.3991e+08 7.9186e+07 1.07297e+08 3.16517e+07 3.09021e+07 9.82881e+06 7.15953e+06 300472 860721 165980 94679.5
threshold=0 1 2 3 4 5 6 7 8 9 10 11 12 13 14 15 16
decision_type=9 9 9 1 1 1 9 1 1 1 1 1 1 1 1 1 1
left_child=6 7 13 4 -4 -5 -1 8 -2 -7 -8 -9 -12 14 15 -3 -15
right_child=1 2 3 5 -6 9 10 11 -10 -11 12 -13 -14 16 -16 -17 -18
leaf_value=-113.09724657434241 -29.655963821411135 0.19813877812665492 511.77264791556763 219.76843919690896 79.740056629878723 136.80428597613385 -65.096380689651525 -54.124990216336506 -97.943058128128513 71.028619766066271 -39.266299920976948 -32.783856578032768 -52.986604262562302 -3.1517871791773509 -4.3233010622071317 -1.8574473760660415 -5.7187691360554371
leaf_weight=179 135 191 102 311 113 142 427 119 157 131 752 797 520 192 357 196 179
leaf_count=179 135 191 102 311 113 142 427 119 157 131 752 797 520 192 357 196 179
internal_value=0.582586 35.3574 85.6728 208.259 298.34 170.631 -57.1114 -44.4132 -68.3994 108.867 -50.5857 -36.1109 -45.2448 -3.24175 -2.55897 -0.863497 -4.5079
internal_weight=5000 3122 1914 799 215 584 1878 1208 292 273 1699 916 1272 1115 744 387 371
internal_count=5000 3122 1914 799 215 584 1878 1208 292 273 1699 916 1272 1115 744 387 371
cat_boundaries=0 1 2 3 4 5 6 7 8 9 10 11 12 13 14 15 16 17
cat_threshold=149 288 8 16 3 12 1 1 7 1 1 2 25 14 5 4 10
is_linear=0
shrinkage=0.05


Tree=87
num_leaves=18
num_cat=17
split_feature=1 1 1 3 1 1 3 3 2 2 3 2 3 3 3 3 3
split_gain=4.29812e+09 6.56817e+09 1.46046e+10 5.62593e+08 2.63973e+08 2.14492e+08 4.94759e+07 3.09716e+07 7.52229e+06 7.40638e+06 1.53749e+07 241585 2.88478e+06 2.38411e+06 556729 526183 24635.4
threshold=0 1 2 3 4 5 6 7 8 9 10 11 12 13 14 15 16
decision_type=9 9 9 1 9 9 1 1 1 1 1 1 1 1 1 1 1
left_child=5 4 9 -4 11 -1 -7 -6 -9 -3 -11 13 15 -2 16 -13 -15
right_child=1 2 3 -5 7 6 -8 8 -10 10 -12 12 -14 14 -16 -17 -18
leaf_value=-107.74158566389136 -7.4469019792847719 -25.127113587326477 454.2224409869865 270.09410497824354 -20.254090690360499 -65.156887008477071 -43.18652973622499 -35.385395763366205 -57.214394148542908 -33.194808607300125 -60.582731104764072 2.322853816350301 -8.2640328418325506 0.87800762889149431 -2.9399668976500797 -2.3894027318709936 0.037593801233780949
leaf_weight=179 167 134 125 410 179 462 1426 236 306 218 210 110 206 172 172 107 181
leaf_count=179 167 134 125 410 179 462 1426 236 306 218 210 110 206 172 172 107 181
internal_value=0.605388 39.4699 135.722 320.66 -18.464 -54.4695 -48.8777 -41.8777 -48.5227 -42.8583 -47.7092 -3.08626 -4.12436 -2.40199 -0.68803 -0.00360203 0.459994
internal_weight=5000 2933 1097 535 1836 2067 1888 721 542 562 428 1115 423 692 525 217 353
internal_count=5000 2933 1097 535 1836 2067 1888 721 542 562 428 1115 423 692 525 217 353
cat_boundaries=0 1 2 3 4 5 6 7 8 9 10 11 12 13 14 15 16 17
